{
  "input": 20,
  "layers": [
    {
      "name": "layer_1",
      "neurons": 21,
      "bias": [
        0.0,
        -0.005579684628522451,
        3.930622878315608e-07,
        0.0,
        0.0,
        -3.8238406788877605e-17,
        0.0,
        0.0,
        3.0659033329506e-08,
        0.0,
        1.4965569496634609e-09,
        0.0,
        -3.2606090257822482e-09,
        -0.013842983535174472,
        0.0,
        1.635225859168296e-10,
        0.0,
        0.0,
        0.0,
        0.0,
        -6.222902983657052e-17
      ],
      "weights": [
        [
          0.0472551674559849,
          -0.3904408676619411,
          -0.694076411332351,
          -0.6453457300804368,
          -0.7645078110772241,
          -0.6716317184494054,
          0.5234590395930976,
          -0.9418770222054069,
          -0.4067703125745663,
          -0.3257751997292204,
          -0.4598843236503156,
          -0.5702241056654493,
          -0.36832778662943766,
          -0.21208334605039325,
          -0.6390041575430381,
          -0.4098889161552335,
          -0.7010464973742763,
          -0.5175949424383111,
          -0.7572686303365785,
          0.16845747778837894
        ],
        [
          -0.5050443978287894,
          -0.390899742738269,
          0.9658824093769842,
          0.7302235257445551,
          -0.935614079916553,
          0.14157021141877,
          -0.3532303222441693,
          -0.46655839107081776,
          0.7574831754056903,
          0.908131001754858,
          -0.6383090717795572,
          -0.32552581904710604,
          -0.9829943144913977,
          -0.8241946687959429,
          -0.21533549062615545,
          0.8115786749880272,
          0.6466497175330806,
          -0.6471252490365861,
          -0.08916447521787403,
          0.06823265487549608
        ],
        [
          -0.13740434777557953,
          0.5841408822056641,
          -0.7089862766279045,
          -0.34498636705849967,
          -0.6606238761959679,
          -0.8780729758459341,
          0.42180475430127945,
          0.4733442309402906,
          0.08246632715119855,
          -0.5132598165480089,
          0.4187798749723208,
          -0.38015810732529737,
          -0.3773152178523046,
          0.6728960413578172,
          -0.011091138607866636,
          -0.43530974227530556,
          -0.8891603921999875,
          0.46086499215770244,
          0.7462069660903213,
          -0.12224168287541551
        ],
        [
          -0.8992073765619728,
          0.0551880065263366,
          0.01778357245442197,
          -0.7368827364524284,
          0.39359123337953017,
          -0.14168307148595516,
          0.08520390162891078,
          0.6598101558951694,
          0.41189288653068235,
          0.1963662176280474,
          0.06109677802742097,
          0.9419658553159806,
          0.30761521009081694,
          0.8610509508301747,
          -0.40677570672806174,
          0.12061117527342691,
          0.5142240978418278,
          0.45985883782460624,
          0.09013247017254056,
          -0.013563376005361283
        ],
        [
          0.06480885010722282,
          -0.6450440651490303,
          0.37845328062752825,
          0.2734201690126583,
          -0.5780038596458952,
          -0.703453951868314,
          -0.47641826578442426,
          -0.2860766851274532,
          -0.3285822443459634,
          0.0036599291203991413,
          -0.9813289907399223,
          -0.35430092019445847,
          -0.6434254840906675,
          0.17606364628725735,
          -0.6879505559427732,
          -0.43946067214084805,
          -0.9385097690274065,
          0.9928503303341958,
          0.7106945382296865,
          0.0011724781984567834
        ],
        [
          0.42451160722964304,
          0.6985911144839253,
          -0.014393267603138313,
          -0.38565853688212476,
          -0.15392363836900003,
          -0.6157388853030984,
          0.25088032943192484,
          0.48203420855998236,
          -0.10452470832189034,
          -0.18887646187217283,
          -0.6386723388437,
          -0.22164892276379028,
          -0.24803204956801797,
          0.7425387021173244,
          -0.3896741337136994,
          -0.10294640496395033,
          -0.6674998294926117,
          0.48073530776481654,
          0.8349871578427972,
          -0.9835188570044362
        ],
        [
          0.9760728855577476,
          0.1646135356420284,
          -0.8716959509307101,
          0.3913788659636581,
          -0.2594325912912554,
          -0.29685750280807555,
          -0.8055861448767105,
          0.3473887113847405,
          -0.5183025205034364,
          -0.13600909807632156,
          -0.1750861149871763,
          -0.5065106226625535,
          -0.5920383025918328,
          0.037101600530513146,
          0.4039583995418823,
          -0.18814019777587654,
          0.41952577873314767,
          0.2661394713291316,
          -0.9718130147896742,
          0.13456273691525045
        ],
        [
          -0.972298756793543,
          -0.6832985165284164,
          0.0054415785963928265,
          -0.13219503630765628,
          -0.6128451111781452,
          0.8414817727951511,
          -0.6743185375075385,
          -0.19645195749967637,
          0.7294584217168036,
          0.7011200213170858,
          0.20489487858270694,
          0.4177758504375457,
          -0.6392852283090149,
          0.9722714236029155,
          0.04363643112086124,
          0.48140567743142326,
          0.46120433580758946,
          0.21529684435755003,
          -0.3636624839167466,
          0.8539492457201556
        ],
        [
          -0.9618251160263226,
          -0.3676177203461556,
          -0.7020754708824849,
          0.1567813184966512,
          0.0774217750984591,
          0.8487974848219489,
          -0.5887864413641158,
          -0.10692718243470302,
          0.7540202692619381,
          -0.8894149054846568,
          0.5705948597172839,
          -0.09394494720622597,
          -0.007916021414602131,
          -0.9143429181146803,
          0.030286501888978454,
          -0.2854182223329902,
          0.5606891420333373,
          -0.07623870249762135,
          0.5934717413537623,
          0.2677845809587609
        ],
        [
          0.42933598104175075,
          -0.7395884721132231,
          0.46688051122440744,
          -0.6528483593280587,
          -0.5445813244068585,
          0.3814570638043888,
          0.6012055883454486,
          0.04495661831569908,
          0.837967854270425,
          0.27862684638111235,
          0.412725211544017,
          0.4676669493352754,
          -0.7179475751357411,
          0.1665937632336234,
          -0.5998684802108181,
          -0.5662262331394492,
          -0.9686025221533956,
          -0.8763176282257392,
          -0.926109191995127,
          -0.2519835780212003
        ],
        [
          0.6702382915693836,
          -0.9679528589552967,
          -0.5278297492538047,
          -0.793856337442417,
          -0.03290084142676857,
          0.2503023158756251,
          -0.15089683212531407,
          0.4903724344405381,
          0.5009546045178733,
          0.25386873224519946,
          0.09309074023654082,
          0.23403875838456847,
          0.06351581334118193,
          0.2071008109980196,
          0.5014185358075446,
          0.5900466058598705,
          0.336727080617662,
          -0.8108199944888674,
          -0.18690092075489,
          -0.4134136718155711
        ],
        [
          0.31175595656403043,
          0.9953596163926548,
          -0.8282871130472831,
          0.45550543688223644,
          -0.7232212046882651,
          -0.5014392124986078,
          -0.7904030620006879,
          0.524907652911266,
          0.8471989519312033,
          -0.35171889990609606,
          -0.19161286162245927,
          -0.22216959039496031,
          0.8330735460271885,
          -0.3052982536170765,
          0.02355896255515022,
          0.4310035151850615,
          0.5490254333740221,
          0.4434744691782375,
          0.3184077311995148,
          0.22094259482565737
        ],
        [
          0.45094194511787417,
          -0.2243757667035085,
          -0.2927673276529129,
          -0.41930821103147886,
          -0.632273539552282,
          -0.9566133866086561,
          0.14276357644455848,
          0.9643121066823406,
          0.4312478093467977,
          0.7663333546381089,
          0.17701697147965437,
          0.4708242079885171,
          -0.7865683570793328,
          -0.3701629189754945,
          0.36160170263343955,
          0.7692370947201262,
          -0.5195750077596486,
          0.26316840234963584,
          -0.2984612944688937,
          0.015542388988077725
        ],
        [
          0.6490450910099336,
          -0.7751380045219028,
          0.32684796575834363,
          0.017753212485395707,
          0.5150374533997545,
          0.4412943378212195,
          0.3481732137939052,
          0.24462132585238033,
          -0.9583439882927716,
          0.3837376610796158,
          -0.28976908751652736,
          0.6025983781873978,
          -0.4903229035989999,
          -0.5157848504623508,
          -0.6448642744640714,
          0.6720815657819691,
          -0.44154793140847143,
          -0.8182754661022413,
          -0.8032809247973519,
          0.09697122345862236
        ],
        [
          -0.6063890227337665,
          0.8484809412959284,
          0.7993189782555152,
          0.26265617003623,
          0.921584846229373,
          -0.10525845767030861,
          0.45994367322336727,
          -0.1872011869117931,
          0.7552715319637036,
          0.40603753987728064,
          0.6011417346432011,
          0.5233171669450569,
          0.7236247595958536,
          -0.27870989732373697,
          0.3507135302153841,
          -0.027870364210923038,
          -0.2195119747374723,
          0.338886485375846,
          0.92129841038136,
          0.27648063685225677
        ],
        [
          0.7593132645436531,
          0.7804660313499181,
          -0.8121286542687839,
          -0.3451736381153101,
          0.7243510540441334,
          -0.6296258032055249,
          0.5065423108277736,
          0.8592711069427865,
          -0.5034427817408079,
          -0.6227750840755765,
          0.49312973415460276,
          -0.5016311306552693,
          0.14917743950804005,
          -0.4821663827105344,
          0.299629239272246,
          -0.7297918614482538,
          0.681317315501668,
          -0.5704926530471143,
          -0.7735785018197897,
          0.9086087071939215
        ],
        [
          0.5329205408245046,
          -0.45828217799095716,
          0.3254493947808108,
          0.12779497079391522,
          0.08524215632794752,
          -0.9035340476869471,
          0.23898990602103876,
          -0.36020288629094765,
          -0.42452719448504483,
          -0.7231910791436704,
          0.5540846068541119,
          0.02339106400236224,
          -0.23292466894774844,
          0.04957543863279268,
          0.033316512039903934,
          -0.26728473389469687,
          0.6708912471976449,
          -0.2720792006962214,
          0.09577856580249744,
          -0.7750297220703364
        ],
        [
          -0.6336493003668153,
          -0.4962870349192299,
          -0.5545944451984854,
          0.6431822555699238,
          0.9609071493226577,
          -0.46213673034068403,
          -0.181013991221602,
          0.630125294218542,
          0.879711259130135,
          0.31462574632147233,
          0.25649205087239313,
          -0.12055475390104053,
          0.9007314554943071,
          -0.43730434964211784,
          0.9849872896194727,
          0.1463769056144526,
          -0.8997613157153104,
          0.7733082628221257,
          0.767997569820404,
          -0.94300089010355
        ],
        [
          -0.1953883150553839,
          0.483959286243379,
          -0.2258043088246977,
          0.8355002491740449,
          0.5611696302237694,
          0.062310388961719365,
          -0.5135406976750383,
          -0.43512369750940083,
          0.9344057350087456,
          -0.5581353618906826,
          -0.11200168308147984,
          0.5777731242395214,
          0.3000607267558275,
          0.34292057574185786,
          0.5945651888053025,
          0.536431072271311,
          0.7870207524054522,
          -0.23337553227934493,
          0.26497801417484634,
          -0.7560372142090017
        ],
        [
          -0.4007534645754094,
          0.2740887156100782,
          0.14514931412635157,
          -0.5502143587799968,
          0.5840853886070463,
          0.5486397910102168,
          -0.04561478630274607,
          -0.5048176764314061,
          -0.728671343667082,
          -0.9950729450178291,
          -0.8508888883323158,
          0.6047218319932544,
          0.43322847864336533,
          0.035223841494656405,
          -0.49459270382444553,
          -0.26170905440761305,
          0.616674034557652,
          -0.2549205389635838,
          -0.6278789396272053,
          -0.1767462922761478
        ],
        [
          -0.6983076838720623,
          0.3816228964213235,
          0.3835712363135872,
          0.16076399387499454,
          0.8424022310887516,
          -0.7555208706691384,
          -0.6651876864951695,
          -0.4096455730111112,
          -0.041319940491788255,
          -0.43649755071389423,
          -0.22718476985865604,
          -0.1431168922308313,
          -0.19595786413935876,
          0.8314897092474643,
          0.16647032571470455,
          0.31616017890898035,
          -0.9395584518250152,
          -0.6720275874302387,
          0.302146785378148,
          0.17826838679403167
        ]
      ]
    },
    {
      "name": "layer_2",
      "neurons": 26,
      "bias": [
        0.022842103483482406,
        -3.6937048154865117e-06,
        -0.0002924330157753594,
        -0.015777460970039764,
        -0.004694581692444778,
        0.005129084462033685,
        -0.0009910051658252447,
        0.037602242430253896,
        0.020782926599649282,
        1.958750427045906e-05,
        -0.01456361756840751,
        -4.0832386257334776e-05,
        0.010328406682669574,
        -0.006128666239051243,
        -0.0018744326732653808,
        -0.031072741879177575,
        0.00017084692410872593,
        -0.023089282990225272,
        0.005067221318715879,
        -0.019920114690900208,
        0.0002999039675922775,
        0.000721383046075273,
        2.0335914288286696e-05,
        0.012649660386966353,
        -0.006638390503552804,
        0.00029032297379785136
      ],
      "weights": [
        [
          -0.06100089689057251,
          0.4655952528012128,
          0.4092283363048859,
          -0.5228892132166343,
          -0.5342489326687114,
          -0.6192132591153926,
          0.6689154833595627,
          -0.4040574003880893,
          0.07160180481646494,
          -0.7941569736918939,
          0.9049968901946579,
          0.11432082570285135,
          0.4764629457122241,
          -0.026772605306842282,
          0.5088210264741592,
          0.23169100788991326,
          0.05951379128996538,
          0.5526287252170741,
          -0.8617593797784784,
          0.41231433223885566,
          -0.9888320860948164
        ],
        [
          0.8822199345816771,
          0.26822275290971237,
          -0.8671163805983205,
          0.9160691558851056,
          -0.7760282751461419,
          -0.6214469005213571,
          -0.5534914536910193,
          0.5047847752330227,
          -0.07346797112452118,
          -0.3744168704659766,
          -0.4383634873365027,
          0.5360378873996509,
          0.7356690649836646,
          0.6938449075927751,
          -0.7856353191679756,
          -0.9978139877779116,
          -0.9302632941863879,
          0.874069164458075,
          -0.008994383322977664,
          -0.5545325999800846,
          0.8085307595900556
        ],
        [
          0.30262738701350783,
          0.6022848034551153,
          -0.26246965234980985,
          -0.1451752636565362,
          0.6358631086950076,
          0.47416410414928073,
          -0.8292698513640403,
          -0.38684886487085807,
          -0.060479672453557794,
          0.6449452236783507,
          -0.6690247179276813,
          -0.6340238884961579,
          0.28393815677029327,
          0.9808765325530184,
          -0.5445000679118411,
          0.8487105721869148,
          0.15381854133879047,
          -0.05846330593773347,
          -0.11260035438369169,
          -0.6834228598688453,
          -0.6695846119554448
        ],
        [
          0.6161731641944845,
          0.36004988390254816,
          -0.8751731092336371,
          -0.19805135773049756,
          0.8420962672924548,
          -0.9497039176189883,
          0.13920166611024856,
          -0.7270206076106493,
          -0.836402539000967,
          -0.3318722567469349,
          -0.5741149802347031,
          0.29396504160479087,
          0.9483077506704761,
          0.9779229579497233,
          0.5054744071475059,
          -0.2136563876073833,
          -0.5687699870645901,
          -0.8590671277897375,
          0.8071623513528547,
          0.4416579334320633,
          0.8271161153575526
        ],
        [
          0.5345694937219918,
          0.7205840186026568,
          -0.8762967193558125,
          -0.8192322583968541,
          -0.5132984552538045,
          -0.612805144385536,
          0.33800837682259266,
          0.7856092533762651,
          -0.3542176695099898,
          -0.8360754927706853,
          0.8799185198606223,
          -0.9163378496764727,
          -0.26256153517585057,
          0.5134090478116965,
          -0.2068982903410309,
          0.7073177383135144,
          -0.3057159207992607,
          0.7848676038822224,
          -0.6976650399985733,
          0.7043877047135745,
          0.6540188271427101
        ],
        [
          -0.13459637841964014,
          0.8741564355621971,
          0.4061368050147215,
          -0.40975885732470096,
          -0.27432067586440956,
          0.16618913837492866,
          0.9627881790838269,
          -0.5448509804439583,
          0.014818611949594133,
          -0.43276139784719636,
          0.33709605563148687,
          -0.6427717612731829,
          0.8053718304014242,
          -0.6207797961850641,
          -0.22586600335895243,
          -0.26829721040226284,
          0.741431657368957,
          0.8599333042138209,
          0.8553522945499812,
          -0.7851954851209257,
          -0.008160024087206105
        ],
        [
          -0.18992591879678608,
          -0.22830795297880677,
          0.5495355714261018,
          -0.11611595631554103,
          -0.603740670355216,
          -0.49542573397389406,
          0.8267748806568775,
          0.28606374912867427,
          0.9754623053896698,
          -0.4628073959788722,
          0.6732568348680431,
          -0.19210956911534074,
          0.8342997161555807,
          0.14805320662179186,
          -0.9078537869362693,
          -0.4418110761814101,
          -0.03243897050986488,
          0.6385262282256268,
          -0.7635699464282792,
          0.8551885251937921,
          0.2446912462163278
        ],
        [
          0.5879981229601255,
          0.5725780046610842,
          -0.21808360294410642,
          0.7171791089295493,
          0.32066287468589116,
          -0.6512454284444567,
          -0.9782333185049995,
          0.5114081803210501,
          0.910901505095465,
          0.5798540675679847,
          -0.40765728591754485,
          -0.09174983771119541,
          -0.9404198533173453,
          -0.4695599788514034,
          0.8075328951369524,
          -0.3930921706223346,
          -0.9464915623481457,
          -0.5071285481683466,
          -0.5998484243473786,
          0.15297783997693706,
          0.45189349504385956
        ],
        [
          -0.8471166563942307,
          -0.6578530791984556,
          0.1615676393792035,
          0.21787894447983225,
          0.5146594462048695,
          0.615030468031381,
          0.07963431120922071,
          0.7503361229140109,
          -0.7949868982116556,
          0.46556938639479617,
          0.7462615374945871,
          -0.6880973716914265,
          -0.5821193960711423,
          -0.12403602593716148,
          0.7919800486672095,
          0.4917485794022507,
          0.5108619984378755,
          -0.4399895500758578,
          -0.6735221101376834,
          -0.8028343907702118,
          -0.7719093515650618
        ],
        [
          -0.7495018751018605,
          0.936866305208374,
          0.7268198812374917,
          0.07322454256517259,
          0.2787073396356536,
          -0.797142346454393,
          0.12980628120747623,
          0.043261677241575695,
          -0.9164266735128278,
          0.4008228752057212,
          -0.6697874869880069,
          -0.4345936481672991,
          -0.4667253151727458,
          0.1950431941638171,
          0.7751339837469184,
          0.05182682780713409,
          0.004189543926369821,
          -0.7754739880577957,
          -0.3815900543708512,
          0.5807374361545621,
          0.8293153809081013
        ],
        [
          -0.27920627940403686,
          0.4170601873827423,
          -0.08448257315760108,
          0.833816900348714,
          0.4470583482528938,
          0.11393825086569942,
          0.5374055243462278,
          0.7761673950495039,
          -0.003001892252867818,
          -0.9673132212669896,
          0.35354884245058454,
          0.46938449235667856,
          -0.8660182921575685,
          -0.1927529696292897,
          0.5898371523890548,
          -0.23291189582062496,
          0.025310190271824743,
          0.5612743217202342,
          -0.7880790795112739,
          0.4712218416943894,
          0.7683356252124385
        ],
        [
          -0.5002338061337571,
          0.8428625510863353,
          -0.8114922112861189,
          -0.9319228961815419,
          -0.4355019887709285,
          -0.12925448983929963,
          -0.08395558036078,
          -0.9097262020841926,
          -0.34564528087423635,
          0.27209844977980147,
          0.09816659025667875,
          -0.7395778763559416,
          0.23695276904697565,
          -0.7534569770017632,
          -0.955062468683254,
          0.2518704845331354,
          0.3424529031210105,
          -0.7010491905027375,
          -0.17974294727532705,
          0.8656729880854744,
          0.3398224891798739
        ],
        [
          0.5251417688856679,
          0.04761871938318386,
          0.18032393718925918,
          0.6348209086495171,
          -0.9438786533829355,
          0.16060409837258244,
          -0.16002523435146682,
          0.6133143926670503,
          0.7035124243100527,
          0.6634847336218264,
          -0.5912647983424518,
          -0.03887450780569878,
          -0.5312358808742447,
          -0.8697650125393762,
          0.14383984785047194,
          0.5096685353629198,
          0.08707083330550176,
          0.46576022511986687,
          0.22903400112862898,
          0.018895919743706694,
          -0.6354625625427851
        ],
        [
          0.7419517217623947,
          -0.5829856341993148,
          0.5900100414860645,
          -0.3546123854954569,
          0.365925267260779,
          -0.258882914087737,
          -0.7120202091549567,
          -0.29072714760456975,
          0.2947059337306483,
          -0.5531487221037444,
          -0.741266592956618,
          0.5258504273699066,
          0.8773522234576095,
          0.4130751179633092,
          0.10512076775990915,
          -0.047343629310098556,
          -0.2777672955756757,
          -0.6972044624392776,
          -0.3534682482930952,
          0.8843805577651377,
          0.7552578336505569
        ],
        [
          -0.04076066846434969,
          0.18129328544032933,
          0.5821447997914283,
          0.08890340702241466,
          -0.3788943885236925,
          0.4170574353721031,
          0.3928485192440071,
          -0.48872047097644644,
          -0.9106703905602778,
          -0.932214028597123,
          -0.6502252684549797,
          0.8253354818420637,
          -0.052717357884051956,
          -0.004554646791739605,
          0.9806558798624427,
          -0.2925798771840358,
          -0.5886854593603965,
          -0.7890534845780197,
          0.9481658005983544,
          -0.4129813825295593,
          -0.6851224543123449
        ],
        [
          0.9546448005202481,
          0.4000945544770346,
          -0.6712531691165677,
          0.5714669201863021,
          0.8374308825507331,
          0.11324856304960128,
          -0.36551049296459565,
          -0.08918563289291692,
          -0.1956607816163912,
          -0.057019763452370094,
          -0.6444309818459442,
          -0.6305348446153434,
          0.6627110007335866,
          0.8127785135592855,
          -0.9084881479154454,
          -0.1311753314054772,
          0.10129491129953483,
          0.6479964011982844,
          0.7742010050169397,
          -0.9263604592710115,
          0.011446183723851233
        ],
        [
          -0.733691173593717,
          -0.014149032872665087,
          0.715493459739215,
          0.048907152580392015,
          0.8868899206600696,
          0.7131713724046637,
          0.18149677661574642,
          0.8960296411050384,
          0.034912686297848834,
          -0.8940327772064025,
          -0.958245433179298,
          0.8696519066758228,
          0.799194065680423,
          0.6951872922798488,
          0.49474589892264875,
          0.6792191072957877,
          0.406554787390655,
          -0.6843542514454954,
          0.5282511092840139,
          0.9022662324103621,
          0.8963048652210491
        ],
        [
          -0.12610318945484839,
          0.7411158313132115,
          0.5353624169721478,
          0.7833836533365011,
          -0.6166462929992362,
          0.8358075821838317,
          -0.654810870776336,
          -0.6894161393697795,
          -0.887187067758774,
          -0.27531395428610733,
          0.6673451778453566,
          -0.028252891690313628,
          0.5184911883406865,
          -0.3961231873981524,
          -0.4673826760701108,
          0.4688962185854038,
          -0.38754148811516237,
          -0.09020034464587544,
          -0.807290305939397,
          -0.6301240078023846,
          -0.9388794100415983
        ],
        [
          -0.19318969586045018,
          0.4863473640205419,
          0.6978134497825152,
          -0.23531266070427884,
          -0.5415255196574325,
          -0.8741099306320221,
          0.03379776100688888,
          0.726227025159365,
          0.5080885382347236,
          -0.9143997203266276,
          -0.9383581860887108,
          -0.11935031122896216,
          -0.4313791095825809,
          -0.6865116235474533,
          0.37886836816728015,
          0.006679127830916613,
          0.7386885280402171,
          -0.9439330907883681,
          0.8158029116208803,
          0.4613632786973128,
          0.059791999519379635
        ],
        [
          0.8837060886867651,
          0.8311195983817267,
          -0.09198645281061868,
          -0.36604784649765837,
          0.6896511455436358,
          -0.48068353198631586,
          -0.25319339528179,
          -0.1629772561286232,
          -0.6103237703699602,
          -0.9084033870131416,
          -0.27214195860199664,
          -0.5110046873873294,
          0.8101579334217812,
          -0.21455917990962436,
          -0.37203646928869544,
          -0.6245710663662566,
          -0.1541969157412663,
          -0.18876947703150124,
          0.156095909392764,
          0.3676446222788569,
          -0.08765308102530608
        ],
        [
          0.16905933499920736,
          -0.48446300658327957,
          0.04046219417786457,
          -0.8852383748317548,
          0.4329642185610893,
          -0.8909527679800037,
          -0.9018805715601416,
          0.10788586214718325,
          0.9285500763420367,
          -0.7877057633344428,
          0.16017901655342068,
          -0.2421356406034514,
          -0.6863086084102478,
          -0.7382562706495428,
          0.9865974686241009,
          0.9403791863974479,
          -0.27958400775405506,
          0.4158726202102437,
          0.5051352682115356,
          -0.8047306913551812,
          0.24109769321447308
        ],
        [
          0.849486802788372,
          0.6334463911691621,
          -0.3654665474918396,
          -0.3605238579773755,
          0.767397854651146,
          0.08817621509528067,
          -0.7433799827223562,
          0.7035323750408919,
          -0.36706074812082184,
          0.1627968183468506,
          0.6673867620050394,
          0.6029436546793203,
          -0.652659756878701,
          -0.16942399035753145,
          -0.7099088577198329,
          -0.23559039586576913,
          0.5386438156369164,
          0.6537725900286899,
          -0.749360804028623,
          0.24474514740446524,
          0.7384751591333865
        ],
        [
          0.41649216479053486,
          -0.24469084836871463,
          -0.8860445370115516,
          0.884023006586405,
          0.7488766051309743,
          0.12962244287365743,
          -0.8590717659236076,
          -0.6301962445974589,
          -0.6336670762434142,
          -0.30620362034517035,
          0.6950635964733498,
          0.02858041045189164,
          0.08923003722038131,
          -0.055918398817437674,
          0.05574244436936839,
          -0.8701482437017031,
          -0.7954827075211071,
          0.19635515386085545,
          0.9438546691139029,
          0.24500154091045512,
          -0.7040899472772475
        ],
        [
          -0.4325756874379336,
          -0.9107106950153228,
          -0.010703570391976329,
          0.4810217976355471,
          -0.38845978488949795,
          -0.03836509153759922,
          -0.30593337114096575,
          0.7674480865328028,
          0.12970181324826136,
          0.8023654295390927,
          -0.4185845548496159,
          -0.38906962980935145,
          0.4104910869424528,
          0.1289985666872418,
          0.031143427433632215,
          0.14970991344469228,
          0.7946687137271915,
          0.3187182201220833,
          0.12895253472246218,
          0.8738591891706338,
          0.7948692351567693
        ],
        [
          0.7527182920156402,
          -0.8961278067917234,
          -0.03528631245354245,
          0.8552930749405919,
          0.30120164299067687,
          1.001836522649728,
          0.7479183969528659,
          -0.7627645450977448,
          -0.5320389691055925,
          -0.8721995430302395,
          -0.29956420371320236,
          -0.22849145458617148,
          0.5402200192342472,
          0.31421994883067894,
          -0.005009629239392909,
          0.03132309038284842,
          0.4896841894215781,
          -0.05698047689508287,
          -0.6805715214101465,
          -0.7056085944400144,
          -0.7876675977667241
        ],
        [
          -0.7391996107840353,
          -0.848432070909007,
          0.11269141005608681,
          0.27008254776381724,
          0.11717065882423958,
          -0.04313212224056958,
          -0.31968526908848294,
          -0.7693635781101267,
          0.20423323906714927,
          -0.8248975251608426,
          0.23253518032269122,
          0.540867693812771,
          -0.847001440176616,
          0.7386228204799301,
          0.3739934612008594,
          -0.20193118856229844,
          0.24869873612039758,
          -0.943396302676025,
          0.12122278116162868,
          -0.9661240954995494,
          -0.8764666577222016
        ]
      ]
    },
    {
      "name": "layer_3",
      "neurons": 34,
      "bias": [
        -0.04254891487129718,
        -0.00526875797351488,
        -0.010216604574631118,
        1.3382656101683577e-05,
        -0.004496088098014583,
        -0.025005334313011295,
        -0.0018871428347274142,
        6.683255742773667e-05,
        -0.013756504980829911,
        0.008100422320616868,
        -0.012454544428363641,
        -0.005644985806146046,
        0.015477731961967844,
        -0.024831252900777954,
        -0.01039160869559957,
        -0.006797692824237899,
        0.0033509936694563606,
        -1.4067285028514072e-05,
        0.034178255628693484,
        0.014467921973810464,
        0.02023300589896728,
        0.0005659775126392769,
        -2.8124768015533075e-06,
        0.008485468937471902,
        -0.000338654452910828,
        -4.645707139247672e-05,
        0.023247928704014178,
        0.012196221531187818,
        0.0009593690254609101,
        -0.015099632415533202,
        -0.0027760032273885394,
        -0.004339709045673134,
        -1.551035269258074e-05,
        9.664758717178153e-07
      ],
      "weights": [
        [
          -0.803625283649846,
          -0.2275281112114644,
          -0.7594466521318514,
          0.5501513104487268,
          0.07489774030329842,
          0.13494403573965882,
          0.4329845892890726,
          0.16997632544976884,
          -0.13837209639596706,
          -0.576413608009515,
          0.8718035833058085,
          0.9260489458458485,
          -0.6962583946841207,
          0.036858174388848794,
          0.4191480995163547,
          0.22918411199231697,
          -0.09869257172320274,
          0.652754189253059,
          0.40344725774675916,
          0.06326559276329884,
          -0.33078046978265657,
          0.02347172723966579,
          -0.243896045295543,
          0.4407806002766351,
          -0.7553583376110806,
          -0.8613857383613247
        ],
        [
          0.46645043361951904,
          0.778247882058352,
          0.9743779632260684,
          0.45285438090842567,
          0.35538789290537226,
          0.37283400801868555,
          -0.6630434743932851,
          -0.4754773104300721,
          0.15298153809096462,
          -0.8809313382445777,
          -0.8356855394603941,
          0.7259916768992468,
          0.5550474172179167,
          -0.41712432942844474,
          0.9671437366425378,
          0.3770866972216081,
          -0.3368793759819895,
          -0.8665962385072319,
          -0.8162456222156461,
          0.11484182999916677,
          0.33251149551851933,
          -0.2002111225190975,
          0.011067046705001898,
          0.3005097260429173,
          0.6456752650211798,
          0.16811530911145683
        ],
        [
          -0.10539218904517546,
          -0.5386861128905924,
          0.27700002399828766,
          0.7050494913665171,
          0.2586801050490924,
          0.10455960745065354,
          0.526453517627406,
          -0.6766674025612387,
          0.16175964324431097,
          -0.4491093534888377,
          -0.1713090748218642,
          0.6052227451688033,
          0.6184297510167674,
          0.09150480283715519,
          -0.8515857250610548,
          -0.3027299699520253,
          -0.40422990618630544,
          0.40479844274595456,
          -0.7609108752195278,
          -0.9855230035235581,
          -0.995819156288369,
          0.9232790839050626,
          0.10336219977362457,
          -0.019924660055290432,
          -0.5407844936356814,
          0.5690381827358874
        ],
        [
          -0.5318145421924451,
          0.3365770288304238,
          -0.8654937944238674,
          -0.3033085024671382,
          -0.9604135201687745,
          0.8691763370526219,
          0.23072915069964345,
          -0.618568432589177,
          0.589187085395087,
          -0.7394376084455155,
          0.10528000238156245,
          0.44111830812489644,
          0.5862454904955552,
          0.39798181937832333,
          0.7182692204891524,
          0.8034898402524895,
          -0.3356200783731831,
          0.30365467799717755,
          -0.7974120528568589,
          -0.5224133686213881,
          0.5684864729886074,
          0.3753219672486392,
          0.5803786764134916,
          -0.21620452725490916,
          -0.9003043089507399,
          0.09168465097096971
        ],
        [
          0.9967571686663907,
          -0.39784785393727523,
          0.19640276930790204,
          -0.8005592518368523,
          -0.658588477836486,
          0.5719267862659869,
          -0.23986822028670346,
          -0.6321281298326393,
          -0.2627807106863255,
          -0.44424024190757644,
          -0.11165898978198759,
          -0.2972048583054819,
          -0.8982143149565865,
          0.7240181274134624,
          -0.5296104132657359,
          0.9539501075280971,
          0.9255130210600887,
          0.10336654036244111,
          -0.7668349365192028,
          -0.45697207092287917,
          0.6762744146167824,
          0.9964958211818958,
          0.2540330439949069,
          0.731305695349076,
          0.5365352890462975,
          0.6367902378506716
        ],
        [
          -0.5254511222852596,
          -0.579394729834655,
          -0.2654769033687204,
          -0.10622228705458098,
          0.1952707677777896,
          0.47479644242650293,
          0.06496509422611646,
          -0.9137601477352237,
          -0.9790034335394378,
          -0.9593233175350115,
          0.16634680841296273,
          0.744681826243192,
          -0.8631727074888382,
          0.8267036900049745,
          0.5177786831760193,
          0.040608837663361395,
          -0.2755293543667317,
          0.8911808271441877,
          -1.004823821403247,
          0.09864998747724875,
          -0.7285270560441418,
          -0.9427368302189582,
          -0.6833992190738083,
          -0.19982917372507386,
          -0.3504794354541852,
          0.80703977063156
        ],
        [
          -0.02493400657334354,
          -0.5886940057311185,
          0.61194839979604,
          -0.7904056134224356,
          -0.13615778150159136,
          -0.7186904694512478,
          0.026145817359974954,
          0.08190319476148841,
          -0.4282963497208045,
          -0.6179436481768265,
          0.16415432599912264,
          0.4960274329647293,
          0.5278012199934103,
          0.4597623703719266,
          0.26897573706632827,
          0.8587164740975234,
          0.373521558763496,
          -0.9252282070998217,
          0.899392360683276,
          0.13806488970603337,
          0.8142023553852391,
          0.09578116023507058,
          -0.6207920759177017,
          -0.4723752763004886,
          0.9863464130220552,
          -0.581542052876165
        ],
        [
          -0.6544079138618135,
          -0.8987767908233685,
          -0.37535145887495436,
          0.6643429697180953,
          0.9203480441683837,
          -0.17749646050406764,
          0.06039630014017397,
          0.6378039792696681,
          0.5898466750312502,
          0.03377028501270782,
          -0.1343614729897789,
          0.922469817652194,
          0.5848577590158285,
          -0.5856913342607019,
          -0.5188000865556898,
          -0.14437120164665976,
          0.1481889722760993,
          -0.7066239597511006,
          0.19771155239510363,
          -0.10125869321022314,
          0.09156584170891208,
          0.40211537566736255,
          0.2304426426694127,
          0.3650804556675269,
          -0.05745286073537461,
          -0.877583563887622
        ],
        [
          0.21567268772132958,
          0.7467206578427124,
          0.07249883020455394,
          -0.16988000149838486,
          0.6077833677517561,
          0.961248393175631,
          0.7446649426963243,
          0.17483174653397615,
          0.49763444458662304,
          0.5051709654085863,
          -0.06065722242972779,
          0.5001008150582773,
          -0.22184779832857476,
          0.5255097958922359,
          -0.04595922463854435,
          0.34341724605881213,
          -0.09312473911056256,
          0.7178998001531165,
          -0.6313346360949422,
          0.3553526665300087,
          -0.7315508459874355,
          0.5697893132304128,
          0.033556752169119165,
          -0.6989560139323803,
          -0.012299081152354386,
          0.36824386023474626
        ],
        [
          -0.7981220997581212,
          0.012526970244360162,
          -0.7371617916168727,
          -0.22236335313722938,
          -0.09728643982377835,
          0.7963939883117479,
          -0.13583701242148452,
          0.44211414859249815,
          -0.006574768576055957,
          0.3325266936835275,
          -0.9359942920702683,
          0.9689604426316403,
          0.48316755901460146,
          -0.6826838039889391,
          0.436565325632185,
          -0.06999058651078131,
          -0.550250591138181,
          1.0050043074793393,
          -0.37463118382615523,
          -0.62852891747568,
          -0.05306621393737914,
          0.9676013486355262,
          0.2760630521269713,
          -0.7543020287592419,
          0.5597455707394853,
          0.7777465283554591
        ],
        [
          -0.07482760591269622,
          -0.39243759984879395,
          -0.40004988982393197,
          -0.6450280689247646,
          -0.09117745321490063,
          0.6099802307052467,
          0.9426426595254382,
          -0.20926670144000623,
          0.4806495035749528,
          0.6397504784359678,
          -0.35354631407287873,
          0.24623500326835304,
          -0.9876264873161051,
          0.6132867304840055,
          -0.9186425215556712,
          -0.4390402338509565,
          -0.41759089197587634,
          -0.5570347819336419,
          0.9140875224602244,
          -0.5155535053121453,
          0.13597470246895546,
          0.42561977470515316,
          -0.15103430060376558,
          -0.3273018058357157,
          -0.048333040948770015,
          0.5317085504048906
        ],
        [
          -0.5889575464844858,
          0.73172693572177,
          0.017502920707487823,
          -0.5067099556426984,
          -0.6978233910043893,
          0.43055927942099076,
          -0.19903419254397342,
          -0.651403264105832,
          -0.4725650383672811,
          -0.9751521756929309,
          -0.7070258721397342,
          -0.25602102117017983,
          -0.6573450984167762,
          -0.07802853052727557,
          -0.9684855501759843,
          -0.9238169487135448,
          0.10057098685649016,
          0.797071054419421,
          0.5501145077265138,
          -0.6510500046985663,
          -0.502181700427292,
          0.37858790319135166,
          0.4017194223448482,
          0.016339553268222916,
          0.11972103006987812,
          0.4829303283844594
        ],
        [
          0.5985622153923733,
          -0.9542123323476405,
          0.14865838728786276,
          0.28197911096236844,
          -0.26000453614765845,
          -0.13021223034381793,
          0.43499160710156465,
          0.8787964162468799,
          -0.007411487071992865,
          -0.5549166162900184,
          0.45164399068633665,
          0.7176750792092235,
          0.1217291676663935,
          -0.11824871015417106,
          -0.649283955535655,
          -0.45911938763391436,
          -0.6247867812404683,
          -0.918785446143941,
          -0.8408670643374362,
          -0.5506823965950189,
          0.4110679501622675,
          0.7092093816287864,
          0.6873751980924597,
          0.43569220723417207,
          -0.4346208208789979,
          -0.6017215162508504
        ],
        [
          -0.1334353601682683,
          0.35742521735309385,
          -0.021832555807032854,
          0.9257065383606053,
          -0.0872602104243376,
          -0.38926231805461875,
          0.540368572169927,
          -0.6342371962489168,
          0.6766089437980828,
          -0.9293725296375,
          0.4078891361649832,
          0.693206223277213,
          -0.06202550632085292,
          -0.8558392227491376,
          0.7841802026853035,
          -0.059282168625308176,
          0.9330755290993342,
          -0.18054635528199742,
          0.6125478682450488,
          -0.2392309630353858,
          0.34232362293867574,
          0.803696196286352,
          -0.7820700526786152,
          -0.5025804023098782,
          1.012660857240885,
          0.044229246503781364
        ],
        [
          -0.08500648237966456,
          0.38069234586910167,
          -0.058671848554762374,
          -0.006442694714669285,
          -0.9077424883927699,
          0.19246043920718972,
          -0.9606447798900516,
          -0.052889163702651384,
          0.26883689595707566,
          0.4563893810076995,
          -0.5343573850500579,
          0.3418913804774909,
          0.6182023547039804,
          0.25680266248262495,
          0.10999829578317342,
          0.686214280341196,
          -0.7821502659044348,
          -0.3586085638389516,
          0.16478099389541323,
          -0.07737925152219634,
          -0.7255681959629066,
          0.6449715737460952,
          0.3428941542722765,
          0.2008994729999481,
          -0.6793108075350258,
          -0.41751024310982165
        ],
        [
          0.5212508880031053,
          0.946410145663749,
          0.7492896739967162,
          0.12963550662438492,
          -0.9494344897453262,
          0.912736533901201,
          -0.15587480468095014,
          -0.7570734242590282,
          0.33499522903182016,
          0.32040190805011215,
          0.5425943373134213,
          0.008875059110005416,
          0.8863746781180231,
          0.2912322064456112,
          -0.4142760177071864,
          -0.007625452037102545,
          0.7956604571972974,
          -0.2746847593409365,
          -0.3616168848321633,
          0.4634079112694019,
          0.5970153178904162,
          0.5063314090049075,
          -0.045700679461453945,
          0.8350109964890557,
          -0.17614321001198865,
          -0.8971920661794646
        ],
        [
          0.22225874837171153,
          -0.852775124188159,
          -0.27458919938205545,
          -0.8461991562674743,
          0.7711597599467027,
          -0.06512106183986774,
          0.35107027768995697,
          -0.6214825129187845,
          -0.49333860526817797,
          -0.15572534663047943,
          -0.30619051990768814,
          -0.8091073249305719,
          -0.783451194888648,
          -0.4597357505327761,
          -0.24449903956243135,
          -0.5753608023354085,
          -0.9878484591159594,
          -0.4627389297086076,
          0.5927608181887281,
          -0.9821305758214063,
          -0.9860194769473987,
          0.7370290454565358,
          0.39251297266509466,
          0.204960436905641,
          -0.18492934794671545,
          0.6725668671180168
        ],
        [
          0.7185868874501606,
          0.7163148866113562,
          0.5097271544242995,
          -0.3457452206296169,
          -0.002754934456270913,
          -0.3181992689069984,
          -0.46532880948075717,
          0.1661594008521451,
          -0.6425643178027096,
          0.4254801939529754,
          0.838174970485574,
          0.13480349477781478,
          -0.0015460547524235046,
          -0.18368650913107404,
          -0.8001460647693144,
          0.285206949634013,
          -0.9215632583099005,
          0.39368187483316003,
          0.22747997420684957,
          -0.8583869924661446,
          0.40601297100938744,
          -0.9309852263106589,
          0.9094812004430664,
          -0.007910614650163988,
          -0.23845190272009764,
          -0.029756870783955582
        ],
        [
          0.18974910840770992,
          -0.5642725268118827,
          0.35984272691598906,
          -0.7345218429975201,
          0.8111739533845875,
          0.9538192771397407,
          0.48720485169743577,
          -0.586311914389181,
          0.6202306070298921,
          -0.09303209635589392,
          0.025190323362887193,
          -0.8283054717214673,
          -0.2460588534624971,
          -0.6823273792125142,
          -0.7938707236050725,
          0.7075707641420869,
          -0.9547780500630966,
          0.05811261581877427,
          -0.46144420970619804,
          -0.7262082553321892,
          -0.21124163887287056,
          0.6115187428380371,
          -0.017179870888503358,
          0.4611511620845953,
          -0.6278768082823407,
          0.4708095052968187
        ],
        [
          0.6494974566464525,
          -0.4895549204471412,
          -0.8522760924472128,
          -0.3172287962634757,
          -0.6897803049919158,
          -0.6103216719414988,
          0.5114257642234976,
          0.23424338459428143,
          0.6339518196818825,
          0.5042429684049727,
          0.6104750270291394,
          0.8621732774988383,
          0.5663880841240413,
          -0.6098072605437495,
          -0.13472587530495234,
          0.023092021373788924,
          0.5788620038588235,
          -0.11817039977020133,
          -0.9183488230867076,
          -0.6359974478887369,
          -0.5516366528953168,
          0.7710407028898276,
          0.1571351662279677,
          0.7601247995043571,
          -0.706419135455498,
          0.8599027645442908
        ],
        [
          0.1472122135524881,
          0.10006301319670982,
          -0.7221208852101965,
          -0.22006876723996985,
          -0.9561645120888114,
          -0.16815733863564516,
          -0.12168554078122115,
          0.4151316619817605,
          0.8290912526691783,
          -0.1000486243596335,
          -0.14489949076836542,
          0.2660536320983253,
          -0.7804672779236459,
          -0.201949507537932,
          -0.5977923644784825,
          0.6431272601159282,
          0.8796629109748493,
          -0.9034290347800299,
          0.6501508296286977,
          -0.9567943249522363,
          0.6779475880614014,
          0.40980263744099044,
          0.9894485510546118,
          -0.10886047933852228,
          0.48248638159833646,
          0.44374017874808047
        ],
        [
          0.43799580838288843,
          0.7588556191659627,
          0.5340059525368795,
          0.7607108164736354,
          0.24767888560424658,
          -0.03727728112399992,
          0.16832308740269644,
          -0.6179482469030891,
          -0.2554454878705765,
          0.21672735218602365,
          -0.5651493339691004,
          0.968420708428043,
          -0.7181420559989405,
          0.5754895834608844,
          -0.48995117265195093,
          0.5980184501068546,
          -0.21215340535276545,
          -0.19851788866726527,
          -0.8079248377628819,
          0.23191465203549114,
          -0.6539483476136773,
          0.41458315101942383,
          -0.5938908735484614,
          -0.5592265951543185,
          -0.08117685049695408,
          0.9236329663335292
        ],
        [
          0.5794919467935676,
          0.9217557860753731,
          -0.16753043554187083,
          -0.6464316118094237,
          -0.8681997490009442,
          0.2516676627209941,
          -0.5298242182170038,
          0.041977780150076145,
          -0.5469625478375173,
          0.2712909905408991,
          0.06035939161966882,
          -0.8175168289978723,
          -0.8463837226847581,
          -0.6983533259853851,
          0.3443781260954061,
          -0.44706433285160785,
          -0.7413121938472816,
          0.8064104717040481,
          -0.15333931846885518,
          0.2801106638282871,
          0.09773276577974971,
          -0.5151077477236294,
          -0.12989651224149043,
          0.20009310167065628,
          -0.005511455986845579,
          0.7403102356733676
        ],
        [
          0.6914124603893971,
          -0.9556239327868383,
          0.41295291889599106,
          -0.9446107297948115,
          -0.11244274883227906,
          -0.4381097137014374,
          0.72392480027579,
          -0.20139571336902806,
          -0.06334357123219432,
          -0.6463245387713251,
          -0.8637523046052483,
          -0.41252556950769526,
          0.28047427798143987,
          -0.5349552551157383,
          0.5173668835551382,
          0.024142810333569173,
          -0.5846372971564433,
          -0.9361623395253483,
          0.7376966412697092,
          -0.07418221231238227,
          -0.9158752575705718,
          0.6445218828307038,
          0.44813820023380363,
          -0.04642331571447936,
          0.3796600943484932,
          -0.3152674917094892
        ],
        [
          -0.7484688338069755,
          -0.5169840435033374,
          0.318893636615707,
          -0.3119742815836266,
          -0.5410214868661016,
          0.06448581235526714,
          0.7185135624982143,
          -0.26601700410751117,
          -0.16802562495669432,
          0.23559313941167725,
          -0.5157943418951996,
          -0.7410690428546511,
          -0.8974797832064783,
          -0.8150896288560784,
          0.8492503769531348,
          0.3840114137355287,
          0.04702542220459997,
          0.6676643958284428,
          0.6955203952533134,
          0.35167117439914247,
          0.5412006605474385,
          0.23174101018968637,
          0.9207919225609508,
          0.5085342224424716,
          0.11936599567799261,
          0.9786611500599056
        ],
        [
          -0.6221716726313684,
          0.04273690524118113,
          0.350931432703612,
          0.837245932363859,
          -0.03396767277407538,
          -0.8123384696034925,
          -0.5872546724421469,
          -0.19801496328409177,
          -0.5672712130606014,
          0.10206284970956848,
          -0.19214482561914717,
          0.008977846568040015,
          -0.30876261538236177,
          -0.11607817277391255,
          -0.6951356760576249,
          0.16388381432676855,
          0.8087879487430569,
          -0.4787278872097307,
          -0.5482564109976057,
          -0.19468890506803702,
          -0.20715323906872513,
          -0.12210388247048436,
          0.6040055256281841,
          0.12338318770230074,
          0.1328567803770468,
          -0.5720710947283809
        ],
        [
          0.5694963397569732,
          0.043062790596737954,
          -0.19686472632052868,
          0.7910597660978406,
          -0.9520492452225655,
          0.19695406763628762,
          -0.8150744346233311,
          0.25330061964571465,
          0.0940088430264452,
          0.7867724468289601,
          -0.5890917184520881,
          -0.7269888440861862,
          0.022921604100433535,
          0.8581681944743619,
          0.7342769127482868,
          0.45889884518272495,
          0.6509509255598988,
          -0.047470841804043665,
          0.23868166418027706,
          -0.05059359400354291,
          0.7897187432802298,
          -0.26382524874940794,
          0.42366917536815624,
          0.3224503171126696,
          -0.7966390606735293,
          -0.9099347305577378
        ],
        [
          0.6189930818908861,
          0.2908652713740184,
          0.6316269033780139,
          0.7135100222282644,
          0.5371931036836878,
          0.651909049233208,
          0.5641097470257016,
          0.48772905568783814,
          0.8211943646746975,
          0.6507733441603569,
          0.18660961636572312,
          -0.5630814114942688,
          0.9005795878712969,
          0.21447039514137636,
          0.19442133351839813,
          0.024306467235238924,
          -0.394268249193547,
          0.5357501184542387,
          0.08420690218260646,
          -0.6121948854692074,
          0.7075521920669801,
          0.8505454129727643,
          -0.9185127722221865,
          0.5571326240770448,
          -0.18773291419308738,
          -0.5394114965612907
        ],
        [
          -0.398886850423387,
          -0.8987360027031387,
          0.780492135929819,
          0.3486987105916473,
          -0.352926121254503,
          -0.06530979512713413,
          -0.13915857860738912,
          -0.5587473028852135,
          -0.3936401655457792,
          0.023026376666054046,
          0.8112804972238481,
          0.053241430413757666,
          0.7743870209090689,
          0.6784860921658217,
          0.3236422602743246,
          -0.3715328468074612,
          0.058831288986887595,
          -0.32606340837721126,
          -0.686857068629081,
          0.2618607291568415,
          -0.6502289337758169,
          -0.8470023531577029,
          -0.27559511321642916,
          -0.8856354135801409,
          0.47036539912251346,
          -0.2911169532063321
        ],
        [
          -0.5385720526851558,
          -0.6967071873529451,
          -0.2698326096020302,
          -0.7207890552337505,
          -0.8431544660002579,
          0.36540457298309537,
          -0.45532290344602966,
          -0.7547989838463619,
          0.14905752107544548,
          -0.18285769577600114,
          0.5740774778173633,
          -0.3936315636592534,
          0.3728052594294053,
          0.963699210892753,
          -0.5603818230130816,
          0.9328613513013085,
          0.1718998836281512,
          0.2137398749159093,
          0.6307570771717275,
          0.28528880997365125,
          0.5512454292970561,
          -0.3618592626757995,
          0.23923781018070955,
          0.47158010890266416,
          0.5125254483661074,
          -0.8180442540372218
        ],
        [
          0.3437881592898036,
          0.9785929122100323,
          0.8915937463448148,
          -0.09638622993761353,
          -0.988941817375981,
          -0.8327345400158745,
          -0.9050851124844885,
          0.791655879141127,
          -0.3961318275677777,
          0.548170656584549,
          -0.3031722978673896,
          -0.8791798851471971,
          0.42275136097504473,
          0.18797947922042793,
          -0.9362068310128073,
          -0.6735151449021608,
          -0.5017408917663376,
          -0.8799209442594685,
          0.6763134891682765,
          -0.3627671893211741,
          0.22219835017621165,
          -0.9704917801380204,
          0.07539759378842642,
          0.03522019291649254,
          0.16411144934728172,
          0.026731720191906394
        ],
        [
          0.14072954307952495,
          0.2130754286735281,
          -0.7579595701928781,
          0.8485839553525402,
          -0.9821478231324386,
          0.6434223042488331,
          0.2568142549571663,
          -0.9071504723947192,
          0.6090360148779312,
          -0.09699055782979496,
          -0.3372372759157304,
          -0.7956858993277491,
          0.7781818115506307,
          -0.036351447414979976,
          -0.684540528990528,
          0.11856131074156616,
          0.42193863985246655,
          0.622585125468689,
          0.11877407853127184,
          0.15379080714466692,
          -0.8023066538303885,
          -0.6922281549246515,
          -0.9924393468820448,
          0.36230146009545217,
          0.4461780602575624,
          0.06092134276015586
        ],
        [
          -0.16726345617152108,
          -0.10824906594390872,
          0.37885558889686477,
          0.2260240903968033,
          -0.9452878284718835,
          0.9351357223008097,
          0.18740950071016677,
          -0.3031477892885384,
          -0.41559146743713565,
          0.8969348224113003,
          0.5540070315025646,
          -0.8911915626072533,
          0.9678973607760772,
          -0.7095196171883572,
          0.7009925662246153,
          -0.009120536950124613,
          -0.5140079791711547,
          0.8578084259386546,
          0.8405294707428894,
          -0.8573832799338715,
          -0.40555881610833805,
          0.008654495922658798,
          -0.895618559607878,
          -0.7927774084095109,
          -0.3747255248739349,
          0.015350124573248832
        ],
        [
          0.6477681633121183,
          -0.4766569153833876,
          -0.3684678304996555,
          -0.5653619059110337,
          -0.9280625483728547,
          -0.2609950190810352,
          0.6873155419026292,
          0.858398705004912,
          0.4956032777443189,
          -0.18624169493400136,
          0.9152437794885586,
          -0.9440894548970226,
          0.19270065851046686,
          -0.9725561360577839,
          -0.05174102176565856,
          -0.20550576219782363,
          -0.8490994413982049,
          -0.7329842416948676,
          -0.7049120583138679,
          -0.5043001572856166,
          0.14281424203909493,
          -0.6535175077055861,
          0.5866496175461765,
          0.7508103540572784,
          -0.5810385543399273,
          -0.6332174807181296
        ]
      ]
    },
    {
      "name": "layer_4",
      "neurons": 26,
      "bias": [
        -0.00038018811876664615,
        -0.0010626671297483444,
        0.02092041857457094,
        5.6193722034012775e-05,
        -0.0017110508918054973,
        0.03337272759674925,
        -0.006565985444693674,
        0.00960865835933605,
        7.342859095055469e-05,
        0.0032531722620970233,
        0.0030242626819297885,
        0.033433672230469065,
        -0.003718197648049883,
        0.007369475879959444,
        0.005088317037223412,
        0.008323089568403929,
        0.009305728149643023,
        0.032256301246421634,
        0.0032433336318037367,
        0.0005783991871412178,
        -0.027313174741503892,
        -0.0008406978060522883,
        -0.0006668984484501272,
        0.004716647473595674,
        0.004608930065885648,
        0.024998847663203042
      ],
      "weights": [
        [
          0.08363909439710136,
          -0.36148363607635997,
          0.17352697726720667,
          0.25216013750822086,
          -0.3781647154294586,
          -0.6758274673103392,
          -0.7401611901960341,
          -0.6962146255859132,
          -0.6824534751432502,
          0.8422720045818837,
          0.1710284012406881,
          0.761933028939847,
          0.8787471130510868,
          0.9485426319825444,
          -0.08584111406760762,
          -0.9982703087928085,
          0.3098419339534489,
          0.29312931011710885,
          -0.5638341505600495,
          -0.38481643244950514,
          -0.36332519096833416,
          -0.9964478471592614,
          -0.8635215778621607,
          0.2989133613139368,
          -0.04483338230271124,
          -0.9703191572084814,
          -0.34860353747014877,
          0.10602573800945388,
          -0.4272451633231281,
          -0.8041809664578877,
          0.272279295335045,
          0.524919896487357,
          -0.1894346590890858,
          -0.9353004004035573
        ],
        [
          0.3189090614719928,
          0.50306025322087,
          0.0426141321739027,
          0.8145018434890888,
          0.7426754875558796,
          -0.966791705371378,
          0.046468615831865234,
          -0.8268207266379437,
          0.13832657117202204,
          -0.7411297960424068,
          0.9907215945821692,
          0.9047342174725841,
          0.49793456278894555,
          0.2987733848865992,
          -0.010499587145124485,
          0.5513081797919852,
          0.348990705771848,
          0.8128480291666218,
          0.927292167880643,
          0.16219121185413282,
          0.19925400721238784,
          -0.17423334056534168,
          -0.9689374370561371,
          0.5157361954734272,
          -0.16127801729032148,
          -0.38437864658955356,
          -0.6697120092318838,
          -0.48693144530015947,
          -0.7643730666635526,
          -0.14989137461986302,
          0.8622322592196593,
          0.5977147282103698,
          0.9388716408129383,
          -0.8797617306040019
        ],
        [
          0.3921254726849871,
          -0.6568810896623065,
          0.055677442355734345,
          0.3852662694745429,
          0.163334198047633,
          -0.5938434391236947,
          -0.9364050486095201,
          0.006338773527876073,
          -0.5890830924776633,
          0.09260193017142922,
          -0.9084355406461341,
          0.5241202743837697,
          -0.8246439165567241,
          -0.6160043016398277,
          0.4580698850084751,
          -0.2474445026699254,
          -0.898236803912713,
          -0.9046856137845237,
          1.0020143522862528,
          0.1723886321028037,
          0.455715660138485,
          -0.7927125100027719,
          -0.5306622675389976,
          0.12787137443450405,
          -0.7363846178183279,
          -0.15030711743734432,
          -0.6466411125838673,
          0.13870261412919369,
          0.8594774441573364,
          0.05498193847729672,
          -0.3902988555906802,
          -0.6996181215406696,
          -0.26947550095232703,
          0.11429540615892606
        ],
        [
          -0.42926570658768964,
          -0.1494137962343321,
          -0.3583670809240848,
          -0.6103557385191466,
          -0.3382350360076656,
          0.7201835645106396,
          -0.9787664160813582,
          -0.10464196441118646,
          0.6245261770202883,
          0.6461461315042161,
          0.7718942032793353,
          -0.34765744075650384,
          -0.22969901764847872,
          0.2378931938712702,
          0.11105840760048377,
          -0.5347139586731698,
          -0.07347002763700788,
          -0.9928486121473374,
          0.26014635317505025,
          -0.4266321451944497,
          0.43098222563208216,
          0.03378840189486083,
          -0.4487192686972733,
          -0.6748820214832905,
          -0.8658289557306696,
          0.7963813036579078,
          -0.3288117427163548,
          0.13826775657536045,
          0.77170197111806,
          0.2903446323156238,
          0.3661186893297371,
          -0.7104187700945981,
          0.5122716392883353,
          0.6407161326450721
        ],
        [
          0.7408967056822433,
          -0.7961640865707442,
          -0.6529764604358942,
          -0.10686714963484284,
          0.6670770961286234,
          0.2578325445491436,
          -0.7772608050980262,
          -0.04013114364159553,
          -0.23397100557843864,
          -0.857016337971344,
          -0.8661300648422199,
          0.6843532765864452,
          -0.9825162656623783,
          -0.10683526962740875,
          0.5691421523423139,
          -0.1481055574284894,
          0.34451943553868314,
          0.37393001027940315,
          0.28318094284922396,
          -0.49584483897289516,
          -0.8468341413807019,
          0.8336535994212856,
          0.6441252499627899,
          0.8019849736847189,
          0.3083930937999479,
          0.49604196459965866,
          0.6227124100455476,
          -0.6757291212432951,
          -0.9743571278901911,
          -0.8424699144421713,
          -0.05048055688092537,
          -0.0810302146362786,
          0.6611667459549978,
          0.6367911482057294
        ],
        [
          -0.17492473240357617,
          -0.9541408053542414,
          0.1341537065777987,
          0.007279552917144898,
          0.2972525773561265,
          -0.9360502939359326,
          -0.5928902534732798,
          -0.2685562863436333,
          0.0040270153598142375,
          -0.15955500255659155,
          0.7422897287083848,
          -0.33476158568860265,
          -0.4072956323440375,
          0.003026565351240816,
          -0.32628862864661995,
          -0.08565799129964405,
          0.6907189025468763,
          -0.7341463087271333,
          -0.44035075472782664,
          0.1901020977293602,
          0.2527380989380465,
          -0.38533542981216784,
          -0.3183536640082286,
          -0.6222958999799777,
          0.301475784009866,
          0.47080483806931445,
          -0.28105172526830013,
          0.3550478303055328,
          0.3955379081079544,
          0.19378466568455643,
          0.02795210324744561,
          -0.5712552109350019,
          0.4025266968431046,
          0.49597334259231196
        ],
        [
          0.943049081825609,
          0.5473028241957846,
          0.5757565788129818,
          -0.146758031842868,
          0.7912346692982513,
          0.2805587743840787,
          -0.3499997964559786,
          -0.589303445943468,
          0.639586200351205,
          -0.7665714880440443,
          -0.643655382394614,
          0.19313646839197007,
          0.7663483543973584,
          -0.3651177604076509,
          -0.3001650939786049,
          0.6258254106472121,
          -0.8331263914474055,
          -0.20345455274666435,
          0.6518325863472565,
          0.26389408220143823,
          -0.3549416758952702,
          -0.5799227574510593,
          0.7696190171952273,
          -0.5148416768385758,
          -0.16801489180434045,
          -0.8354660266523997,
          0.3827387502058275,
          0.513021871851092,
          0.6593264047692255,
          0.9115684854815197,
          0.054437827015441774,
          -0.0279861327962514,
          -0.34987619937837316,
          -0.1255929904965262
        ],
        [
          -0.8030077944554846,
          -0.20891548489717188,
          -0.06859250987234068,
          -0.18412186878255218,
          -0.6665281643456932,
          -0.4465934171110538,
          -0.14491486304836287,
          -0.47282840968328266,
          0.7785954503910012,
          0.9675944858491219,
          0.4751309809965629,
          0.1512459749841497,
          0.8326918016169409,
          0.4768155668346975,
          0.19099631438702816,
          0.2698635787570552,
          -0.02388265286196462,
          0.9069794825210132,
          0.11203456025210376,
          -0.06828045966486754,
          -0.29364630826852645,
          -0.09370483057410403,
          -0.3270629569878498,
          0.9874927505954694,
          0.3586909144959205,
          -0.7343823868237173,
          0.9100745672564661,
          -0.3696526183416924,
          0.1854668132192898,
          -0.6094124626035867,
          0.1797557791370818,
          -0.3076031049129278,
          -0.8706137425457572,
          -0.49793435984992795
        ],
        [
          0.3181049830522011,
          0.8346525663375995,
          0.4843631178823832,
          -0.598373328505501,
          0.24554852569873264,
          -0.023459903366068107,
          0.9805672425381013,
          -0.2385957836369882,
          0.7227757170589386,
          -0.2258097527255144,
          -0.34707708553517436,
          -0.4447741682585487,
          -0.323100960432937,
          -0.24728135407016574,
          0.12192147618842616,
          0.8810145561803341,
          0.40587804070263916,
          -0.8777003134871098,
          0.45962540662603313,
          0.7951541577997001,
          0.5950668044652366,
          -0.651228675149656,
          0.45836332360757864,
          0.4134461691132063,
          0.05780281869421545,
          0.36231557338821274,
          0.30628540629727014,
          0.006063914961625166,
          0.7107802693123186,
          0.36096649668122716,
          -0.9528609676054176,
          -0.6565408636523681,
          0.5400714692158536,
          -0.9817122562549506
        ],
        [
          0.5656531593928504,
          0.2693400975141287,
          -0.4477798007743289,
          -0.7086281639911037,
          0.022519654343051,
          -0.5051553725077212,
          -0.4851031869513363,
          -0.29437160555680564,
          -0.8383062210067966,
          -0.5564437595573389,
          -0.08188199587794909,
          0.2516745408572806,
          -0.5541673694846867,
          -0.94308429663505,
          0.8398936485155536,
          0.7385344043321312,
          0.3969013384601671,
          -0.24702475849987313,
          -0.010059603492278205,
          -0.7701403584097908,
          0.25998203479973947,
          0.613198858571628,
          0.7626082734231189,
          0.28273649237669785,
          -0.8570037582390972,
          0.6253439751313006,
          -0.8479797890019066,
          0.7548162363681886,
          -0.6318836009214953,
          -0.5017451583126019,
          0.5788740066182086,
          0.7552573389545895,
          0.5051221058674892,
          0.6969160065960138
        ],
        [
          -0.1900294185938936,
          0.09283384051557404,
          -0.7445485508700056,
          -0.16803990221471315,
          -0.5026514466222409,
          -0.8658939476431278,
          -0.9050834511207215,
          0.2786146993647728,
          -0.6083809484763248,
          0.7590071812135105,
          0.6226293772067812,
          -0.03441310987218607,
          0.7417105991153444,
          0.21910826796810648,
          -0.26160400097368114,
          -0.6337786969123353,
          -0.9851164032592016,
          0.07005045949479609,
          -0.7394752695074556,
          -0.08900919869498915,
          0.5156426091388587,
          0.9584344086198029,
          0.9073656600096953,
          -0.6914610977562294,
          0.6108953696273925,
          -0.03313065453427622,
          0.2246566452184017,
          0.04093945788822549,
          -0.8035656121322724,
          -0.2425444485889206,
          0.8921007978134214,
          -0.15467784751336416,
          -0.07377940314199574,
          -0.9697972297207954
        ],
        [
          0.5993767077446321,
          -0.21067908215045802,
          -0.9078989829357305,
          0.34424347012591083,
          -0.2897342332983123,
          -0.1745225467948545,
          0.17014632895633977,
          0.9402041754291417,
          0.21357088031691215,
          0.503162849887006,
          0.08618541479643115,
          0.27714207214647724,
          0.8709145188517313,
          -0.16821045796470588,
          -0.47451662042533016,
          -0.04797011085815546,
          -0.08431650068893796,
          0.16926362655963909,
          0.08325560429407308,
          -0.6124202412570159,
          0.4496906779418462,
          -0.08988241835476901,
          -0.8401611977479332,
          -0.4090637291285333,
          -0.6588881546740428,
          -0.8257293238591231,
          0.6257333369495249,
          -0.9438110952995863,
          0.15291801123901472,
          0.10726638016980622,
          -0.048642389510550554,
          -0.20877576969308276,
          -0.955328885830494,
          -0.06223785373047084
        ],
        [
          0.1328803602502319,
          -0.3885569117734917,
          0.2997218926541525,
          -0.8800127912296692,
          0.9365199263019447,
          -0.14400721063391345,
          -0.22864257183004963,
          0.4524549641628677,
          -0.44472600818263286,
          -0.7662500192354701,
          0.29637026939629457,
          0.18271964235465693,
          -0.45222141736495064,
          0.10917082882758124,
          -0.2616834526930851,
          0.9778931910485291,
          -0.35973610318492544,
          -0.3420371297652264,
          0.08211685999116398,
          0.7200841063237395,
          -0.2001732799278467,
          -0.8730164929633509,
          -0.06283106953716419,
          -0.8304831231221133,
          0.36814459969965385,
          0.4340160647841438,
          -0.9240529063686095,
          -0.9959705648476285,
          -0.6696706009270548,
          -0.2532960803160686,
          0.28905588174796765,
          0.6033458267319449,
          -0.3867474192625717,
          -0.5001574515690037
        ],
        [
          0.5036063035470375,
          0.828886830162045,
          -0.8654745849410656,
          -0.5376835001946879,
          0.6767865383502706,
          0.5508613533205284,
          0.8387643354741129,
          -0.49307697456274346,
          -0.363465442166848,
          0.5924948417251251,
          0.382470925058795,
          -0.016643063977132694,
          -0.6477396993373686,
          0.8255921347801921,
          0.4172173688182414,
          -0.4443920686741721,
          -0.5936168544730831,
          0.6280440878805762,
          -0.819406779831574,
          0.4272070215790768,
          0.1532197331937159,
          0.6839296100281861,
          0.40794467920630034,
          -0.3488290909720467,
          -0.8668249283949008,
          0.3132544419338916,
          -0.7437865546905524,
          0.6052157382921485,
          -0.2922801593636165,
          0.9796484483135114,
          -0.13992944479259853,
          -0.28596845097788465,
          -0.49538688975273076,
          0.8605897689910161
        ],
        [
          0.29199095063354313,
          0.7257484459756046,
          -0.5954749068152879,
          -0.33370984040151946,
          0.3427516596189957,
          0.5140759124470426,
          -0.6087799118297935,
          0.2193192169953406,
          -0.4259322622986287,
          0.9779681603769529,
          0.6280579196029622,
          -0.3893894401112299,
          -0.8259746080395707,
          -0.7505313196985891,
          0.9365905172815367,
          0.8932593783473423,
          0.3126675844912133,
          -0.1130993907810852,
          0.23745938556794838,
          0.6379837065623684,
          0.40330053567122126,
          0.5180437191761452,
          0.29644787236233033,
          0.7588998553958596,
          0.7482456088446202,
          -0.48400057579101974,
          0.02701903054066058,
          0.9480973000663983,
          0.5130432245478415,
          0.7185728499373254,
          0.591822657038483,
          0.6762804729604958,
          -0.10221279256664817,
          0.6038997995720154
        ],
        [
          -0.4943752666032492,
          0.3153300610682419,
          0.6387709049460385,
          0.8982355693055095,
          -0.29989737497877866,
          0.11213882902410766,
          -0.5983781380174584,
          -0.011886693127557647,
          0.617704389355511,
          -0.12963628282942175,
          -0.007839801599357802,
          -0.5758883388041983,
          0.039462904467277404,
          -0.9036006201838056,
          0.48028000434229706,
          0.4483379429074811,
          -0.4213054091629246,
          -0.06577331631429623,
          0.6851839813245321,
          -0.4149889846339209,
          0.05692028914293211,
          -1.0062778358660405,
          0.8041086241947967,
          -0.7957669830649559,
          -0.6870727826944729,
          0.3623926218943739,
          -0.10799112548460221,
          0.05976604070388776,
          0.06271817927781226,
          0.17606057866662767,
          0.3570795995190389,
          0.7590360090939295,
          -0.8548489992514374,
          0.259644228384818
        ],
        [
          -0.407629701670875,
          0.6618299818077481,
          -0.9474726393164954,
          0.4925724906760226,
          -0.8041011109645932,
          0.6049698261006896,
          0.7360491952306497,
          -0.02250372977532495,
          0.9002742759598369,
          -0.9744254089072261,
          -0.6482126918886596,
          0.7165397700723376,
          -0.48192041492349336,
          -0.5235374131155888,
          0.9448395056639627,
          0.17589515317892854,
          0.9247868153100383,
          -0.1460029388729364,
          -0.7935223208603784,
          0.7542614925286912,
          -0.4645455932575692,
          -0.3356783453284809,
          0.39445220750397214,
          -0.9215111544051298,
          0.9425939147609141,
          0.709287085860215,
          0.981960746979485,
          0.8670465076205535,
          0.6518476783497694,
          0.257751494850018,
          -0.7887064193567553,
          -0.17365912427442914,
          -0.6112995001459545,
          -0.423701683933444
        ],
        [
          -0.008626711558778609,
          0.8410266945203888,
          -0.0035740490492672315,
          -0.20123088814990453,
          -0.49529195555318817,
          0.7348213903166919,
          0.6458391040385065,
          -0.007813800694385217,
          -0.19804617396154708,
          -0.6978851214620063,
          -0.08365412830909215,
          -0.8451610099860509,
          0.7792975690424425,
          0.943811760822252,
          -0.19463767646318939,
          -0.3054679652019895,
          -0.16961677594866412,
          0.4382377518203323,
          -0.9204890737850339,
          0.6241404952651212,
          0.04322359220860481,
          -0.7893059837585789,
          0.7495771444062906,
          0.7455693867599101,
          0.44964209834347446,
          -0.1968086434801059,
          0.15007539237029666,
          -0.47798113299224904,
          -0.6121332477589708,
          -0.7138394809789546,
          0.8356718773752655,
          0.2866661304539135,
          0.4496579274367526,
          -0.7195842752473876
        ],
        [
          0.5490510336326869,
          -0.8498434039975956,
          -0.8457538018636401,
          0.7950919492490799,
          -0.47101950529179615,
          0.5716413308896201,
          0.9339346603260397,
          -0.9560468835535542,
          0.7885283915210681,
          -0.5203761130863878,
          0.3565835959026224,
          -0.4909303867632372,
          -0.48605458485087033,
          -0.9331358347183538,
          0.928473789119384,
          -0.8435341310111333,
          0.7999196402663864,
          0.011345024875965806,
          0.5454110818541353,
          0.27099512266059683,
          0.4480520662458414,
          0.7120617742878342,
          0.7843620042391339,
          0.682088992806216,
          0.9638017243537657,
          0.43131185378126946,
          -0.8282807838186661,
          -0.5193791525123931,
          -0.887296838588982,
          0.12387886516466688,
          -0.06446553040174607,
          0.7475622928507918,
          -0.3528459070722599,
          -0.8423160005846145
        ],
        [
          0.39742992059439125,
          0.1185709231978955,
          0.6079203388685606,
          0.6268565064106199,
          -0.4789348192190009,
          0.7814738952851518,
          -0.46271646817062173,
          0.2152379052188913,
          0.6166394115465187,
          0.8042035179892086,
          0.4979401570686565,
          0.6764083071584873,
          -0.5935357160676862,
          0.5115848526515102,
          -0.6813532643353114,
          0.74815687947974,
          0.6660442588047981,
          0.884059384036391,
          -0.7521421073631241,
          -0.8508710225617371,
          0.8373389005816068,
          0.25007725848795437,
          0.573718456393365,
          0.8763024121855911,
          -0.7962547976972745,
          -0.8117619085741867,
          0.9579355982860772,
          -0.591718985220216,
          -0.7220175018266864,
          -0.9629850514897544,
          -0.7783199554953533,
          -0.4105465144546706,
          0.8402781439729123,
          0.5642352438275513
        ],
        [
          0.5279523324215436,
          -0.7486597795428169,
          0.606515258762515,
          -0.1749045375830787,
          -0.41260336135324793,
          0.1574709210570058,
          -0.005796353656092711,
          -0.12305334985950908,
          -0.14123642507630044,
          -0.8245349436025761,
          0.3302712557788095,
          0.9001245251622038,
          0.3815254861939694,
          0.5141484477940711,
          0.4982472419617729,
          -0.030273596968019536,
          -0.2558642154564611,
          0.9561293788290215,
          -0.6790476938673923,
          -0.8571454057790949,
          -0.8140136625194759,
          0.6659664918958141,
          0.7135376225161743,
          -0.06707145156621608,
          -0.5545926658803261,
          0.6411106173211366,
          -0.625132754317477,
          -0.1655746429992829,
          0.16293516232038444,
          -0.771866194667653,
          0.40078418201777566,
          -0.4829085087258097,
          -0.7624647647497962,
          0.8122726610258907
        ],
        [
          0.24969188127717118,
          0.05583832702886348,
          0.40610881760973044,
          -0.035106561981640846,
          0.5580291126368653,
          0.5570347457080675,
          -0.9613065546198468,
          0.2991610495063181,
          -0.919355826384095,
          0.2156024845499629,
          0.41590426896689703,
          0.9895451819715552,
          0.5277318550182699,
          0.18484296090724822,
          0.481786430471969,
          -0.8344164421855511,
          0.6910759056293532,
          0.2699188105567369,
          0.17813532135067073,
          0.9881406701975176,
          0.17442553851622616,
          0.09176136439778287,
          0.7052489049941021,
          -0.9796825359826716,
          0.56441736885501,
          -0.7650210885260942,
          -0.9408911818574417,
          -0.7783479843667723,
          0.5206959768756401,
          0.4020557368425222,
          0.8956149550807214,
          -0.39509464545647227,
          0.08883547513964221,
          -0.5814315352717142
        ],
        [
          -0.6362041424098839,
          0.9700311795524951,
          -0.5982843365954298,
          -0.5720376405723974,
          -0.8259921710645145,
          0.5525065859177565,
          0.9376835666615516,
          0.9996934574358253,
          0.007535906932185684,
          0.5347230841653858,
          0.9857272043638262,
          0.43650293838278714,
          -0.3717038357997424,
          0.21028568541207307,
          0.2758880195619599,
          -0.6098034378825956,
          0.32785081115969594,
          -0.38193036365916944,
          0.2421857844864475,
          0.7824022332493469,
          0.9153230350235105,
          -0.37192741267605334,
          0.3124057709294564,
          0.5958904055063866,
          0.9801112578153363,
          0.07993368788746638,
          -0.548555291114901,
          -0.27443725835418,
          -0.31911762753198175,
          -0.7447346549692692,
          0.20014230970968905,
          -0.46013158118086184,
          -0.0018582033752741476,
          0.7473658287622349
        ],
        [
          -0.4758581747791816,
          0.7417207638480232,
          0.7149910875576427,
          0.7347554168293616,
          -0.16038777815591787,
          0.9722041224246004,
          0.2562728305097889,
          -0.8546556432964135,
          0.08245900705156926,
          0.20438078232256932,
          0.964929404546764,
          -0.9205609353621048,
          0.8094393411009799,
          -0.31067855590458743,
          -0.12450428172197116,
          -0.9843161744403981,
          -0.6437600420001754,
          0.13982154256900642,
          0.6948055090684384,
          0.22336371854824338,
          -0.49795520681351635,
          -0.04948822323852287,
          -0.2726652857973221,
          0.07783895797700825,
          -0.9947767198093229,
          0.09657967949023565,
          0.2697267112582081,
          0.30656807177935347,
          0.4551502016354327,
          0.7372430928169325,
          -0.2463788122723443,
          0.45085786452487403,
          0.053048249230406644,
          -0.4971942957710344
        ],
        [
          0.16098433841450252,
          -0.9056524113130803,
          0.007032800725479911,
          -0.7949366967528421,
          -0.9882113044839267,
          -0.5223480553195444,
          -0.47255073971298306,
          0.0025487199796638614,
          0.6269378904169981,
          -0.8731169606766149,
          0.627451336025,
          0.7529885668975287,
          0.8909327490820119,
          0.2381409185673375,
          -0.9722424340162474,
          0.19583249678533135,
          -0.7917743951749883,
          -0.6812708991389379,
          0.2753406090322704,
          0.12612405013399214,
          0.28856022651963387,
          -0.48350116026095824,
          0.8300026860214947,
          0.8064106441239928,
          -0.21740843361956405,
          -0.32056390470743257,
          -0.9157386800757961,
          0.515352138677363,
          -0.33166971173987503,
          0.18351613770690636,
          0.32438589664004275,
          -0.2958587860929564,
          -0.00638701255937905,
          0.4414761392230745
        ],
        [
          -0.7262166617898536,
          0.13228234915772238,
          -0.807081539579639,
          -0.15484382811772554,
          0.7504612376377242,
          -0.24616115688422593,
          0.7795903512133571,
          0.5222431138882749,
          -0.4979664901841035,
          -0.264796716515329,
          0.21551343331019054,
          0.39590567452561126,
          0.5428686358160514,
          -0.9523341976765766,
          0.47196347827847285,
          0.7891145774203222,
          0.5567266083220714,
          -0.1380707177427775,
          0.6295558449117652,
          -0.47090431278575007,
          -0.5927836767949619,
          0.14549678992157866,
          -0.49889834432683844,
          0.27475956970377297,
          1.0155765069435727,
          -0.8263697761400907,
          -0.14242389722216978,
          -0.9320625552661019,
          0.2702379970760779,
          -0.5800496068527182,
          0.6445783068845709,
          0.5797899252169356,
          0.6038627255829994,
          -0.11840287123353055
        ]
      ]
    },
    {
      "name": "layer_5",
      "neurons": 21,
      "bias": [
        0.01640491407674596,
        -0.1206705919497468,
        0.032663805280007785,
        0.002620187677611853,
        -0.00548933036802206,
        -0.07682230972670817,
        0.030357411846249006,
        0.10363796413264564,
        0.029216330991235554,
        0.0031097757162377886,
        -0.11061969898642655,
        -0.09629010374197644,
        0.037056187629149286,
        -0.00015153247277612203,
        0.06170685566747315,
        0.039657536010324075,
        -0.024126778439087497,
        0.061643034918415995,
        -0.0005912399183465785,
        0.0064148499704481,
        -0.04103707351820063
      ],
      "weights": [
        [
          -0.255294696654634,
          0.06936894551985302,
          0.682135340572431,
          -0.13737771027916756,
          0.05587428056342336,
          -0.06829261005202973,
          -0.698235670912095,
          0.4157040203811027,
          0.8283848398142317,
          0.32747486523402325,
          0.13704467685147037,
          0.7733665295914108,
          -0.6168349607437343,
          0.4789479830644131,
          0.95218376849513,
          -0.8450602975486025,
          0.1321104559856088,
          0.9450988146438729,
          0.5412961197561531,
          0.5501851951532979,
          -0.660478012509839,
          -0.18934038097882225,
          -0.1608123717660638,
          0.6226452529005266,
          0.44023272668176594,
          -0.24491683910298892
        ],
        [
          0.5777688414331943,
          0.5575452440054346,
          -0.6224246898787981,
          -0.6661241036619696,
          -0.5205106869863221,
          -0.22820335013850926,
          0.6023801996527552,
          0.6223336734588497,
          0.6333574650258729,
          0.15612692175109932,
          0.70072350593104,
          -0.6794734623924481,
          -0.2329903459155815,
          0.2828195099305947,
          -0.3109912989894315,
          -0.5683150534768786,
          -0.5525760829944504,
          -0.865303598010364,
          -0.5322663622525579,
          -0.953432571566358,
          0.3193555197088526,
          0.6766957824548944,
          0.7002883186238031,
          0.29392493873688685,
          -0.26400259308476604,
          0.2565341332141167
        ],
        [
          -0.9522373797193614,
          -0.5421406742877596,
          -0.6341264002460784,
          0.40944735602499965,
          -0.574638776032254,
          0.6963670200731348,
          -0.5146439694223022,
          0.26570398906197373,
          -1.0305149168332266,
          -0.17213886090853633,
          0.5419954708531225,
          -0.9148897820328747,
          0.12705871223098364,
          0.09981960150770873,
          -0.8099040914138091,
          -0.43630216873212374,
          0.7656859816152839,
          0.8105336818520006,
          0.1250423766144878,
          -0.9340787612347752,
          0.6339458709901121,
          0.21544090479623684,
          -0.5513487905499466,
          -0.8637067026151284,
          0.9053673133543241,
          0.5346741567172241
        ],
        [
          -0.31503615147275643,
          0.03071275271790558,
          0.860376307114434,
          0.1769636356086258,
          0.26920080434515364,
          0.6999025606560867,
          -0.732170012006945,
          0.9525121335009225,
          0.3862053110018342,
          0.9695421616843207,
          0.844967587207404,
          -0.8046814345034001,
          -0.31738897307802205,
          -0.10787511131054946,
          -0.41243008298054407,
          -0.8195561735944886,
          0.6740169494712904,
          0.9383403740756863,
          -0.9559361081368377,
          0.27428055358012116,
          0.9146108365727957,
          0.21478471063167515,
          0.6734773934283146,
          -0.8867257778910853,
          -0.41469109567817986,
          0.907435520965959
        ],
        [
          -0.2673293579288616,
          0.9191752579152855,
          0.49768188646517436,
          0.5828104101056097,
          0.4092949069305715,
          -0.17257455028310453,
          -0.4145025047144176,
          0.6870659426526471,
          -0.9593145401920442,
          -0.13537616073025896,
          0.35877690145879065,
          0.40186448962055416,
          0.2653781720653261,
          -0.3864009086209809,
          -0.6110583313874484,
          0.5438035469456689,
          0.9458589721978635,
          -0.7359701449536928,
          0.5164701031720916,
          -0.9169494677847141,
          0.09777446423789213,
          -0.8830776842584884,
          -0.8341794287397081,
          -0.22476272574189043,
          0.6842401343501565,
          0.8769795841519711
        ],
        [
          0.28445779576525226,
          -0.4241836218186128,
          0.34810038046041114,
          -0.39454482182187084,
          0.030100641604638743,
          -0.0335391616827108,
          -0.8055580825531127,
          -0.007640489947790423,
          -0.7523755799311674,
          0.05019222535901632,
          -1.0594624557485928,
          0.044520276799735144,
          0.8276962598808012,
          -0.009428670263164603,
          0.8174504357921581,
          -0.7101655995903569,
          -0.40751424942782416,
          0.33015424493491363,
          0.1471954683055984,
          -1.0502871720458191,
          0.6778602362792975,
          -0.04776695112677483,
          -0.42139089777512373,
          1.0660992187027925,
          0.24924141516046916,
          0.8649147195186495
        ],
        [
          0.722669667010189,
          -0.27677883931292346,
          -0.7556422873791542,
          0.8911176275466476,
          -0.5892138542769167,
          0.8496261140042948,
          0.6804633083775635,
          0.2680041859941285,
          -0.5456275769227227,
          -0.8971572659470125,
          0.04538545907486962,
          -0.307033739654838,
          0.10348421415658547,
          -0.562148411038107,
          -0.9012078549706972,
          0.20677337415069552,
          -0.7920762822463003,
          -0.9273807769497848,
          -0.6374389148828239,
          0.7402366242419637,
          -0.9560717122101196,
          -0.4438398460682938,
          0.3571480202935305,
          -0.6580492115532648,
          0.6957724112104055,
          -0.25303237723153227
        ],
        [
          0.22263948057487237,
          0.2751957689201079,
          -0.6889693145551805,
          -0.5731278914453931,
          -0.5106082297422739,
          0.06560285640426088,
          -0.9466042181121169,
          -0.5822054807459329,
          0.05652541115787909,
          -0.4543493288275386,
          -0.824089689606778,
          -0.11705562538658927,
          0.8400226115032912,
          0.6760283877736561,
          -0.8589639986012587,
          0.48658055294473795,
          0.21437278738096024,
          0.41012068443771366,
          -0.06363037830294395,
          0.1546945588270422,
          -0.17936206957705927,
          -0.3451718114787839,
          0.8186901409280531,
          -1.057471364991823,
          0.5670295489822047,
          0.8294619581751373
        ],
        [
          -0.7624555325102266,
          -0.8666081545918279,
          0.5257655987964045,
          -0.17156091634910822,
          0.415560915679184,
          0.19354349346255914,
          -0.7990993829877641,
          1.0087108488277359,
          -0.7049048686559989,
          0.10782410483761509,
          -0.48327658438534105,
          0.5354818317268148,
          0.2804501323459579,
          0.3279828859881108,
          0.29105845198941516,
          0.4143113571301211,
          0.1128457278754404,
          0.08906260853970717,
          -0.4425960169452142,
          -0.7073945764374032,
          -0.5898459062316992,
          -0.3095861289979808,
          0.6676368068914303,
          -0.05748874577760511,
          -0.008976028096058401,
          -0.6965704321181082
        ],
        [
          -0.4630473608416004,
          0.9020510685844481,
          0.40990506022632034,
          0.9498143189714705,
          -0.8986573576414557,
          -0.3601707044455154,
          0.7582911380621021,
          -0.9132977474188156,
          -0.38962461884596183,
          -0.7821135220988477,
          -0.28984432020957096,
          -0.13680692590688934,
          0.7021467433411299,
          -0.40419565669292307,
          0.893288636703315,
          0.28843037110972675,
          -0.3736178159637039,
          -0.752406416665392,
          -0.9805491200703231,
          -0.5026578191487737,
          0.3547421879065518,
          0.9047135467399727,
          0.43715786173084087,
          0.6101048244132974,
          -0.2087486232080269,
          -0.6708930394307336
        ],
        [
          0.12342617869894709,
          -0.8975714100030496,
          0.5282706512249561,
          0.6012164167133646,
          0.8010923697382409,
          0.5318925635507805,
          -0.33495487962800946,
          -0.6377558355639725,
          -0.4284951499049174,
          -0.7752729817841008,
          0.03677683141252785,
          -0.5932211413462226,
          -0.8669057077182102,
          -0.11674952834651386,
          -0.5675245194631964,
          0.3394537104150352,
          0.3746186066573101,
          -0.30555544052754896,
          -0.23792878361945555,
          0.09393830569533734,
          0.022034394013722428,
          0.5403682746666031,
          -0.2730369855596952,
          -0.8741004329736034,
          0.3966620424115455,
          -0.8661919783598524
        ],
        [
          -0.11434250489756284,
          0.5219973150486427,
          -0.7721178859270267,
          0.8822048185382471,
          -0.4465885165512955,
          0.10117616961366349,
          -0.6129602645385758,
          -0.9950531912821602,
          -0.05702882734013642,
          0.7932875290256715,
          -0.4788386213403769,
          -0.01488928085270954,
