{
  "input": 20,
  "layers": [
    {
      "name": "layer_1",
      "neurons": 21,
      "bias": [
        0.0,
        0.0,
        0.0,
        0.0,
        0.0,
        0.0,
        0.0,
        0.0,
        0.0,
        0.0,
        0.0,
        0.0,
        0.0,
        0.0,
        0.0,
        0.0,
        0.0,
        0.0,
        0.0,
        0.0,
        0.0
      ],
      "weights": [
        [
          0.0472551674559849,
          -0.3904408676619411,
          -0.694076411332351,
          -0.6453457300804368,
          -0.7645078110772241,
          -0.6716317184494054,
          0.5234590395930976,
          -0.9418770222054069,
          -0.4067703125745663,
          -0.3257751997292204,
          -0.4598843236503156,
          -0.5702241056654493,
          -0.36832778662943766,
          -0.21208334605039325,
          -0.6390041575430381,
          -0.4098889161552335,
          -0.7010464973742763,
          -0.5175949424383111,
          -0.7572686303365785,
          0.16845747778837894
        ],
        [
          -0.49946471320026786,
          -0.3797403734812246,
          0.9826214632625496,
          0.7525422642586439,
          -0.9077156567739406,
          0.17504831918990482,
          -0.3141725298445117,
          -0.42192091404263743,
          0.8077003370623912,
          0.9639278480400806,
          -0.576932540865811,
          -0.2585696035048364,
          -0.9104584143206049,
          -0.7460790839966278,
          -0.13164022119831853,
          0.9008536290443878,
          0.7415043562179635,
          -0.5466909257231813,
          0.01684953272405254,
          0.17982634744594517
        ],
        [
          -0.1374047408378678,
          0.5841400960810896,
          -0.7089874558147691,
          -0.3449879393076505,
          -0.660625841507408,
          -0.8780753342196612,
          0.42180200286526426,
          0.473341086441988,
          0.08246278959060804,
          -0.5132637471708863,
          0.41877555128715493,
          -0.38016282407275215,
          -0.3773203276620467,
          0.6728905384857868,
          -0.011097034542184137,
          -0.43531603127191043,
          -0.8891670742588806,
          0.4608579170365219,
          0.7461994979068527,
          -0.12224954412117217
        ],
        [
          -0.8992073765619728,
          0.0551880065263366,
          0.01778357245442197,
          -0.7368827364524284,
          0.39359123337953017,
          -0.14168307148595516,
          0.08520390162891078,
          0.6598101558951694,
          0.41189288653068235,
          0.1963662176280474,
          0.06109677802742097,
          0.9419658553159806,
          0.30761521009081694,
          0.8610509508301747,
          -0.40677570672806174,
          0.12061117527342691,
          0.5142240978418278,
          0.45985883782460624,
          0.09013247017254056,
          -0.013563376005361283
        ],
        [
          0.06480885010722282,
          -0.6450440651490303,
          0.37845328062752825,
          0.2734201690126583,
          -0.5780038596458952,
          -0.703453951868314,
          -0.47641826578442426,
          -0.2860766851274532,
          -0.3285822443459634,
          0.0036599291203991413,
          -0.9813289907399223,
          -0.35430092019445847,
          -0.6434254840906675,
          0.17606364628725735,
          -0.6879505559427732,
          -0.43946067214084805,
          -0.9385097690274065,
          0.9928503303341958,
          0.7106945382296865,
          0.0011724781984567834
        ],
        [
          0.4245116072296431,
          0.6985911144839254,
          -0.014393267603138193,
          -0.3856585368821246,
          -0.15392363836899992,
          -0.6157388853030981,
          0.25088032943192506,
          0.48203420855998247,
          -0.10452470832189009,
          -0.18887646187217255,
          -0.6386723388436994,
          -0.2216489227637899,
          -0.2480320495680175,
          0.7425387021173249,
          -0.38967413371369886,
          -0.10294640496394969,
          -0.6674998294926113,
          0.4807353077648173,
          0.8349871578427976,
          -0.9835188570044358
        ],
        [
          0.9760728855577476,
          0.1646135356420284,
          -0.8716959509307101,
          0.3913788659636581,
          -0.2594325912912554,
          -0.29685750280807555,
          -0.8055861448767105,
          0.3473887113847405,
          -0.5183025205034364,
          -0.13600909807632156,
          -0.1750861149871763,
          -0.5065106226625535,
          -0.5920383025918328,
          0.037101600530513146,
          0.4039583995418823,
          -0.18814019777587654,
          0.41952577873314767,
          0.2661394713291316,
          -0.9718130147896742,
          0.13456273691525045
        ],
        [
          -0.972298756793543,
          -0.6832985165284164,
          0.0054415785963928265,
          -0.13219503630765628,
          -0.6128451111781452,
          0.8414817727951511,
          -0.6743185375075385,
          -0.19645195749967637,
          0.7294584217168036,
          0.7011200213170858,
          0.20489487858270694,
          0.4177758504375457,
          -0.6392852283090149,
          0.9722714236029155,
          0.04363643112086124,
          0.48140567743142326,
          0.46120433580758946,
          0.21529684435755003,
          -0.3636624839167466,
          0.8539492457201556
        ],
        [
          -0.9618251466853576,
          -0.3676177816642221,
          -0.7020755628595827,
          0.15678119586051875,
          0.07742162180329237,
          0.8487973008677474,
          -0.5887866559773498,
          -0.10692742770696961,
          0.7540199933306391,
          -0.8894152120749896,
          0.5705945224679174,
          -0.0939453151146259,
          -0.007916419982035405,
          -0.9143433473411466,
          0.03028604200347851,
          -0.2854187128775241,
          0.5606886208297701,
          -0.0762392543602215,
          0.5934711588321291,
          0.267783967778094
        ],
        [
          0.42933598104175075,
          -0.7395884721132231,
          0.46688051122440744,
          -0.6528483593280587,
          -0.5445813244068585,
          0.3814570638043888,
          0.6012055883454486,
          0.04495661831569908,
          0.837967854270425,
          0.27862684638111235,
          0.412725211544017,
          0.4676669493352754,
          -0.7179475751357411,
          0.1665937632336234,
          -0.5998684802108181,
          -0.5662262331394492,
          -0.9686025221533956,
          -0.8763176282257392,
          -0.926109191995127,
          -0.2519835780212003
        ],
        [
          0.6702382900728283,
          -0.9679528619484112,
          -0.5278297537434748,
          -0.7938563434286454,
          -0.03290084890955325,
          0.2503023068962824,
          -0.1508968426012125,
          0.49037242246808277,
          0.5009545910488611,
          0.25386871727963056,
          0.09309072377441452,
          0.23403874042588524,
          0.06351579388594164,
          0.20710079004622206,
          0.50141851335919,
          0.5900465819149598,
          0.33672705517619383,
          -0.8108200214268901,
          -0.18690094918947198,
          -0.41341370174671055
        ],
        [
          0.31175595656403043,
          0.9953596163926548,
          -0.8282871130472831,
          0.45550543688223644,
          -0.7232212046882651,
          -0.5014392124986078,
          -0.7904030620006879,
          0.524907652911266,
          0.8471989519312033,
          -0.35171889990609606,
          -0.19161286162245927,
          -0.22216959039496031,
          0.8330735460271885,
          -0.3052982536170765,
          0.02355896255515022,
          0.4310035151850615,
          0.5490254333740221,
          0.4434744691782375,
          0.3184077311995148,
          0.22094259482565737
        ],
        [
          0.45094194837848356,
          -0.22437576018229044,
          -0.2927673178710857,
          -0.41930819798904273,
          -0.6322735232492369,
          -0.9566133670450017,
          0.14276359926882165,
          0.9643121327672128,
          0.43124783869227845,
          0.7663333872442002,
          0.1770170073463535,
          0.4708242471158257,
          -0.7865683146914164,
          -0.3701628733269682,
          0.3616017515425751,
          0.7692371468898702,
          -0.5195749523292963,
          0.26316846104059777,
          -0.2984612325173226,
          0.015542454200258238
        ],
        [
          0.662888074545108,
          -0.7474520374515539,
          0.36837691636386705,
          0.0731251466260936,
          0.5842523710756269,
          0.5243522390322664,
          0.4450740985401265,
          0.3553651941337761,
          -0.8337571364762013,
          0.5221674964313605,
          -0.13749626862960818,
          0.7687141806094915,
          -0.3103641176417318,
          -0.32198308096990824,
          -0.43721952143645426,
          0.8935693023447606,
          -0.2062172113105054,
          -0.5691017624691008,
          -0.540264237629037,
          0.3738308941621118
        ],
        [
          -0.6063890227337665,
          0.8484809412959284,
          0.7993189782555152,
          0.26265617003623,
          0.921584846229373,
          -0.10525845767030861,
          0.45994367322336727,
          -0.1872011869117931,
          0.7552715319637036,
          0.40603753987728064,
          0.6011417346432011,
          0.5233171669450569,
          0.7236247595958536,
          -0.27870989732373697,
          0.3507135302153841,
          -0.027870364210923038,
          -0.2195119747374723,
          0.338886485375846,
          0.92129841038136,
          0.27648063685225677
        ],
        [
          0.7593132643801315,
          0.7804660310228733,
          -0.8121286547593518,
          -0.34517363876940066,
          0.72435105322652,
          -0.6296258041866627,
          0.5065423096831163,
          0.8592711056346054,
          -0.503442783212511,
          -0.622775085710803,
          0.49312973235585367,
          -0.501631132617538,
          0.14917743738224654,
          -0.48216638499985076,
          0.29962923681940623,
          -0.7297918640646155,
          0.6813173127217849,
          -0.570492655990523,
          -0.773578504926719,
          0.9086087039234692
        ],
        [
          0.5329205408245046,
          -0.45828217799095716,
          0.3254493947808108,
          0.12779497079391522,
          0.08524215632794752,
          -0.9035340476869471,
          0.23898990602103876,
          -0.36020288629094765,
          -0.42452719448504483,
          -0.7231910791436704,
          0.5540846068541119,
          0.02339106400236224,
          -0.23292466894774844,
          0.04957543863279268,
          0.033316512039903934,
          -0.26728473389469687,
          0.6708912471976449,
          -0.2720792006962214,
          0.09577856580249744,
          -0.7750297220703364
        ],
        [
          -0.6336493003668153,
          -0.4962870349192299,
          -0.5545944451984854,
          0.6431822555699238,
          0.9609071493226577,
          -0.46213673034068403,
          -0.181013991221602,
          0.630125294218542,
          0.879711259130135,
          0.31462574632147233,
          0.25649205087239313,
          -0.12055475390104053,
          0.9007314554943071,
          -0.43730434964211784,
          0.9849872896194727,
          0.1463769056144526,
          -0.8997613157153104,
          0.7733082628221257,
          0.767997569820404,
          -0.94300089010355
        ],
        [
          -0.1953883150553839,
          0.483959286243379,
          -0.2258043088246977,
          0.8355002491740449,
          0.5611696302237694,
          0.062310388961719365,
          -0.5135406976750383,
          -0.43512369750940083,
          0.9344057350087456,
          -0.5581353618906826,
          -0.11200168308147984,
          0.5777731242395214,
          0.3000607267558275,
          0.34292057574185786,
          0.5945651888053025,
          0.536431072271311,
          0.7870207524054522,
          -0.23337553227934493,
          0.26497801417484634,
          -0.7560372142090017
        ],
        [
          -0.4007534645754094,
          0.2740887156100782,
          0.14514931412635157,
          -0.5502143587799968,
          0.5840853886070463,
          0.5486397910102168,
          -0.04561478630274607,
          -0.5048176764314061,
          -0.728671343667082,
          -0.9950729450178291,
          -0.8508888883323158,
          0.6047218319932544,
          0.43322847864336533,
          0.035223841494656405,
          -0.49459270382444553,
          -0.26170905440761305,
          0.616674034557652,
          -0.2549205389635838,
          -0.6278789396272053,
          -0.1767462922761478
        ],
        [
          -0.6983076838720623,
          0.38162289642132374,
          0.3835712363135877,
          0.16076399387499474,
          0.842402231088752,
          -0.7555208706691374,
          -0.6651876864951691,
          -0.4096455730111108,
          -0.041319940491787666,
          -0.43649755071389373,
          -0.22718476985865532,
          -0.14311689223083057,
          -0.195957864139358,
          0.8314897092474651,
          0.16647032571470533,
          0.3161601789089816,
          -0.9395584518250146,
          -0.6720275874302375,
          0.302146785378149,
          0.17826838679403312
        ]
      ]
    },
    {
      "name": "layer_2",
      "neurons": 26,
      "bias": [
        0.0,
        0.0,
        0.0,
        0.0,
        0.0,
        0.0,
        0.0,
        0.0,
        0.0,
        0.0,
        0.0,
        0.0,
        0.0,
        0.0,
        0.0,
        0.0,
        0.0,
        0.0,
        0.0,
        0.0,
        0.0,
        0.0,
        0.0,
        0.0,
        0.0,
        0.0
      ],
      "weights": [
        [
          -0.038158793407090164,
          0.4888985569706772,
          0.4320703022180248,
          -0.5457313167001174,
          -0.5114068291852283,
          -0.5963711556319093,
          0.6917575868430459,
          -0.42689950387157216,
          0.04875970519534478,
          -0.7713148702084107,
          0.8821547873325806,
          0.09147872221936915,
          0.4536208426345403,
          -0.003146030150796175,
          0.4859789229906757,
          0.2545331112307416,
          0.08235589477344774,
          0.5297866217335909,
          -0.8846014832619615,
          0.43515643572233853,
          -0.9659899826113334
        ],
        [
          0.8822162408768619,
          0.26821907125499034,
          -0.8671200742808862,
          0.9160728495899209,
          -0.7760319688509572,
          -0.6214505942261723,
          -0.5534951473958345,
          0.5047884689378379,
          -0.07346427742033046,
          -0.37442056417079184,
          -0.438359793631788,
          0.5360415811044661,
          0.7356727586884158,
          0.6938412343843663,
          -0.7856316254631603,
          -0.9978176814827056,
          -0.9302669878912031,
          0.8740728581628903,
          -0.008990689618162184,
          -0.5545362936848999,
          0.8085270658852404
        ],
        [
          0.3023349539977329,
          0.6022790221397498,
          -0.26276208360967335,
          -0.1448828306407608,
          0.6355706756792321,
          0.4738716711335058,
          -0.8295622843798158,
          -0.38655643185508315,
          -0.060187239487236255,
          0.6446527906625752,
          -0.6687322849198611,
          -0.6337314554803823,
          0.2842305897808737,
          0.981071675002108,
          -0.5442076348960656,
          0.8484181391729662,
          0.15352610832301505,
          -0.058170872921958106,
          -0.11230792136791634,
          -0.6837152928846209,
          -0.6698770449712204
        ],
        [
          0.6003957032244445,
          0.3559723331033917,
          -0.8909504754115272,
          -0.1822738967604578,
          0.8263188063224147,
          -0.9654813785890284,
          0.1234242051402088,
          -0.7112431466406093,
          -0.8206250806990507,
          -0.3476497177169746,
          -0.55833751969388,
          0.3097425025748306,
          0.9640852113602265,
          0.9820462655161584,
          0.521251868117546,
          -0.22943384847888937,
          -0.5845474480346302,
          -0.8432896668196974,
          0.8229398123228948,
          0.42588047246202354,
          0.8113386543875125
        ],
        [
          0.5298749120295454,
          0.7209187705004556,
          -0.8809912728605647,
          -0.8145376767044077,
          -0.5179930369462509,
          -0.6174997260779824,
          0.33331379513014836,
          0.7903038350687115,
          -0.34952308861144044,
          -0.8407700744631317,
          0.884613101425354,
          -0.9116432679840263,
          -0.2578669535668052,
          0.517269027838986,
          -0.20220370864858572,
          0.702623156650388,
          -0.310410502491705,
          0.7895621855746688,
          -0.6929704583061269,
          0.6996931230211281,
          0.6493242454502637
        ],
        [
          -0.1294672939576067,
          0.8707610850182117,
          0.4112658588775633,
          -0.4148879417867346,
          -0.2691915914023759,
          0.17131822283696208,
          0.9679172635458606,
          -0.549980064905992,
          0.009689528354637211,
          -0.4276323133851627,
          0.3319669713089899,
          -0.6479008457352167,
          0.8002427460305126,
          -0.6301502083414925,
          -0.23099508782098588,
          -0.26316812597226114,
          0.7465607418309907,
          0.8548042197517871,
          0.8502232100879474,
          -0.780066400658892,
          -0.003030939625172424
        ],
        [
          -0.19091692396261095,
          -0.22646656209241534,
          0.5485445722749787,
          -0.11512495114971566,
          -0.6047316755210408,
          -0.49641673913972006,
          0.8257838754910527,
          0.2870547542945001,
          0.9764533103880315,
          -0.46379840114469806,
          0.6742478400069085,
          -0.19111856394951587,
          0.8352907213037999,
          0.15187991863631423,
          -0.9068627817704444,
          -0.4428020813410465,
          -0.03342997567569017,
          0.6395172333914516,
          -0.7625789412624544,
          0.8541975200279672,
          0.24370024105050292
        ],
        [
          0.6256003653903783,
          0.6088666792549662,
          -0.18048158683219628,
          0.6795768664992965,
          0.3582651171161453,
          -0.613643186014204,
          -0.9406310760747467,
          0.4738059378907975,
          0.8732992690237296,
          0.6174563099982375,
          -0.44525952732485363,
          -0.1293520801414494,
          -0.978022095079587,
          -0.43419202788892597,
          0.7699306527066996,
          -0.3554899284269153,
          -0.9088893199178929,
          -0.5447307905985994,
          -0.6374506667776314,
          0.19058008240719082,
          0.48949573747411357
        ],
        [
          -0.8263337297945794,
          -0.6389193239943975,
          0.18235044110440435,
          0.19709601788018327,
          0.5354423728045208,
          0.6358133946310323,
          0.10041723780886991,
          0.7295531963143596,
          -0.815769821297335,
          0.48635231299444537,
          0.7254786114603287,
          -0.7088802982910778,
          -0.6029023223015724,
          -0.10639841681349882,
          0.7711971220675582,
          0.512531505872106,
          0.5316449250375268,
          -0.460772476675507,
          -0.6943050367373347,
          -0.7820514641705605,
          -0.7511264249654106
        ],
        [
          -0.74948228759759,
          0.9368736581907287,
          0.7268394686240722,
          0.07320495506090219,
          0.278726927139924,
          -0.7971227589501224,
          0.12982586871174662,
          0.043242089737305145,
          -0.9164462610137845,
          0.4008424627099916,
          -0.6698070744917444,
          -0.4346132356715695,
          -0.46674490267666924,
          0.1950419715605527,
          0.7751143962426479,
          0.05184641531128231,
          0.004209131430640278,
          -0.7754935755620662,
          -0.3816096418751216,
          0.5807570236588326,
          0.8293349684123719
        ],
        [
          -0.29376989697244404,
          0.40263142923379136,
          -0.09904610302385741,
          0.8483805179171204,
          0.43249473068448663,
          0.09937463329729179,
          0.5228419067778214,
          0.7907310126179103,
          0.011561722852837741,
          -0.981876838835396,
          0.3681124596227985,
          0.48394810992508575,
          -0.8514546748478882,
          -0.20708720030050243,
          0.6044007699574612,
          -0.24747551329807882,
          0.010746572703417279,
          0.5758379392886406,
          -0.7735154619428675,
          0.4566582241259822,
          0.7537720076440322
        ],
        [
          -0.5002746385200147,
          0.8428218468806896,
          -0.8115330434265924,
          -0.9318820637952843,
          -0.4355428211571859,
          -0.12929532222555706,
          -0.08399641274703717,
          -0.909685369697935,
          -0.3456044484948828,
          0.27205761739354406,
          0.09820742264182525,
          -0.739537043969684,
          0.23699360143250803,
          -0.7534975913613309,
          -0.9550216362969963,
          0.2518296521471326,
          0.3424120707347531,
          -0.7010083581164799,
          -0.17970211488906962,
          0.8656321556992168,
          0.3397816567936165
        ],
        [
          0.535470175568338,
          0.05082519414745179,
          0.19065228178539617,
          0.624492501966847,
          -0.9335502467002654,
          0.17093250505525215,
          -0.1496968276687971,
          0.6029859859843802,
          0.6931840193739274,
          0.6738131403044965,
          -0.6015932047441432,
          -0.04920291448836833,
          -0.5415642873734268,
          -0.8715505380639259,
          0.13351144116780223,
          0.519996941981085,
          0.09739923998817113,
          0.4554318184371968,
          0.21870559444595927,
          0.02922432642637629,
          -0.6251341558601151
        ],
        [
          0.7358230555233429,
          -0.5888383030264948,
          0.5838814121629348,
          -0.34848371925640587,
          0.35979660102172795,
          -0.26501158032678807,
          -0.7181488753940084,
          -0.2845984813655187,
          0.30083459893339004,
          -0.5592773883427962,
          -0.7351379268842935,
          0.5319790936089583,
          0.8834808895877835,
          0.40741590495339386,
          0.11124943399896048,
          -0.053472295510874845,
          -0.28389596181472676,
          -0.6910757962002259,
          -0.34733958205404414,
          0.878251891526086,
          0.7491291674115053
        ],
        [
          -0.04263510113761515,
          0.17864806232964336,
          0.5802703783942673,
          0.09077783969567998,
          -0.3807688211969589,
          0.4151830026988368,
          0.39097408657074073,
          -0.4868460383031801,
          -0.9087959582039504,
          -0.9340884612703886,
          -0.6483508358327066,
          0.8272099145153293,
          -0.0508429252440874,
          -0.007740142700636721,
          0.9825303125357083,
          -0.29445430984559495,
          -0.5905598920336621,
          -0.7871790519047541,
          0.95004023327162,
          -0.41485581520282566,
          -0.6869968869856105
        ],
        [
          0.9235720586410687,
          0.3627639062642589,
          -0.7023257239308152,
          0.6025396620654815,
          0.8063581406715536,
          0.08217582117042377,
          -0.39658323484377256,
          -0.0581128910137394,
          -0.16458804499186197,
          -0.08809250533154755,
          -0.6133582408120772,
          -0.599462102736164,
          0.6937837420607549,
          0.7710614894891348,
          -0.877415406036266,
          -0.16224807309059774,
          0.0702221694203573,
          0.6790691430774638,
          0.8052737468961191,
          -0.9574332011501909,
          -0.019626558155326324
        ],
        [
          -0.7335203266696082,
          -0.015173844685916427,
          0.715664305656162,
          0.048736305656283285,
          0.8870607675841784,
          0.7133422193287724,
          0.18166762353985555,
          0.8958587941809295,
          0.03474183940263109,
          -0.8938619302822937,
          -0.9584162800987597,
          0.869481059751714,
          0.7990232187593489,
          0.6933244032663919,
          0.49457505199854035,
          0.6793899542188302,
          0.4067256343147634,
          -0.6845250983696043,
          0.528080262359905,
          0.9024370793344709,
          0.8964757121451579
        ],
        [
          -0.1491924724450744,
          0.7134169516427791,
          0.5122732731239295,
          0.8064729363267247,
          -0.6397355759894598,
          0.8127182991936082,
          -0.6779001537665597,
          -0.6663268563795559,
          -0.8640977886731909,
          -0.29840323727633233,
          0.6904344602074579,
          -0.005163608700088362,
          0.5415804709207259,
          -0.42705308755889493,
          -0.4442933930798858,
          0.44580693573937724,
          -0.41063077110538737,
          -0.06711106165565028,
          -0.7842010229491734,
          -0.6532132907926083,
          -0.9619686930318216
        ],
        [
          -0.18812247454173425,
          0.4941466041876392,
          0.7028806409994868,
          -0.24037988202299476,
          -0.5364582983387158,
          -0.8690427093133053,
          0.03886498232560487,
          0.7211598038406484,
          0.5030213177732974,
          -0.909332499007911,
          -0.9434254072695738,
          -0.12441753254767796,
          -0.4364463308112847,
          -0.6767974199917064,
          0.37380114684856536,
          0.011746349117986554,
          0.7437557493589337,
          -0.9490003121070847,
          0.8107356903021636,
          0.4664305000160276,
          0.06485922083809559
        ],
        [
          0.863785973995864,
          0.8141000838426207,
          -0.11190644764383673,
          -0.34612773180675815,
          0.6697310308527347,
          -0.5006036466772161,
          -0.27311350997269024,
          -0.14305714143772286,
          -0.5904036590474739,
          -0.9283235017040428,
          -0.2522218444530109,
          -0.49108457269642813,
          0.8300780477587975,
          -0.22954556678598248,
          -0.3521163545977952,
          -0.6444911809327505,
          -0.17411703043216664,
          -0.16884936234060088,
          0.17601602408366435,
          0.3477245075879567,
          -0.1075731957162065
        ],
        [
          0.16935923896680016,
          -0.4844177659925737,
          0.04076209634402739,
          -0.8855382787993455,
          0.43326412252868085,
          -0.890652864012413,
          -0.9015806675925508,
          0.10758595817959082,
          0.9282501724251606,
          -0.787405859366852,
          0.15987911259398713,
          -0.24243554457104421,
          -0.6866085123725114,
          -0.7383895321374212,
          0.9862975646565102,
          0.9406790903631663,
          -0.2792841037864635,
          0.41557271624265213,
          0.5048353642439449,
          -0.8044307873875904,
          0.24139759718206588
        ],
        [
          0.8502081858344468,
          0.634214781819469,
          -0.364745168787189,
          -0.3612452410234501,
          0.7681192376972208,
          0.08889759814135578,
          -0.7426585996762813,
          0.7028109919948171,
          -0.36778213104491164,
          0.16351820139292594,
          0.666665378978589,
          0.6022222716332455,
          -0.6533811399119622,
          -0.16862265050515468,
          -0.7106302407659078,
          -0.23486901282419947,
          0.5393651986829913,
          0.6530512069826151,
          -0.7500821870746979,
          0.24546653045054057,
          0.7391965421794613
        ],
        [
          0.41651250070482315,
          -0.24466807700302162,
          -0.8860242012198014,
          0.8840026706721178,
          0.7488969410452615,
          0.12964277878794594,
          -0.8590514300093204,
          -0.6302165805117461,
          -0.633687412154261,
          -0.30618328443088205,
          0.695043260559616,
          0.02856007453760334,
          0.08920970130645456,
          -0.05589392036239693,
          0.05572210845508008,
          -0.8701279077875421,
          -0.7954623716068199,
          0.19633481794656693,
          0.9438343331996157,
          0.24502187682474363,
          -0.7040696113629603
        ],
        [
          -0.4199260270509677,
          -0.9057629294502323,
          0.0019460137569566882,
          0.4683721372485812,
          -0.37581012450253204,
          -0.025715431150632906,
          -0.29328371075399984,
          0.7547984261458356,
          0.11705215499971922,
          0.81501508992606,
          -0.43123421489245883,
          -0.40171929019631736,
          0.39784142678021994,
          0.12854781656645287,
          0.018493767046665832,
          0.1623595737526582,
          0.8073183741141587,
          0.3060685597351174,
          0.11630287433549569,
          0.886508849557601,
          0.8075188955437371
        ],
        [
          0.7460799015120871,
          -0.9027473566745912,
          -0.04192466296076147,
          0.861931465444145,
          0.29456325248712356,
          0.9951981321461758,
          0.7412800064493128,
          -0.7561261545941917,
          -0.5254005797245116,
          -0.8788379335337926,
          -0.2929258133902424,
          -0.22185306408261884,
          0.546858409619867,
          0.307613604969011,
          0.0016287612641598948,
          0.02468469992075395,
          0.4830457989180248,
          -0.05034208639153004,
          -0.6739331309065935,
          -0.7122469849435675,
          -0.7943059882702772
        ],
        [
          -0.738909287810239,
          -0.8481919103154227,
          0.11298173128330768,
          0.2697922247900193,
          0.11746098179803743,
          -0.042841799266771785,
          -0.319394946114685,
          -0.769653901083923,
          0.20394291614244575,
          -0.8246072021870463,
          0.23224485735679146,
          0.5405773708389747,
          -0.8472917631452554,
          0.7388278205834431,
          0.37370313822706147,
          -0.20164086559031413,
          0.24898905909419544,
          -0.9436866256498213,
          0.12093245818783083,
          -0.9658337725257531,
          -0.8761763347484053
        ]
      ]
    },
    {
      "name": "layer_3",
      "neurons": 34,
      "bias": [
        0.0,
        0.0,
        0.0,
        0.0,
        0.0,
        0.0,
        0.0,
        0.0,
        0.0,
        0.0,
        0.0,
        0.0,
        0.0,
        0.0,
        0.0,
        0.0,
        0.0,
        0.0,
        0.0,
        0.0,
        0.0,
        0.0,
        0.0,
        0.0,
        0.0,
        0.0,
        0.0,
        0.0,
        0.0,
        0.0,
        0.0,
        0.0,
        0.0,
        0.0
      ],
      "weights": [
        [
          -0.7665635138513007,
          -0.18498155902827618,
          -0.8020418514606347,
          0.5052045603902255,
          0.0321886297966949,
          0.15075103017920166,
          0.4694957244465867,
          0.20645359448306766,
          -0.15155291316433517,
          -0.6189621167970496,
          0.9046306308239844,
          0.8835085306319144,
          -0.6534537611933791,
          -0.003939458939228757,
          0.45953607296787036,
          0.20375884167368508,
          -0.14095878573179,
          0.6845874770161224,
          0.43212616605237475,
          0.025040736041699763,
          -0.2882168307869959,
          -0.018735048708317992,
          -0.2013523668364161,
          0.4312340925284186,
          -0.793255264713163,
          -0.8191759362629709
        ],
        [
          0.4709108655036347,
          0.7835162034964547,
          0.969054950511288,
          0.4436635845620307,
          0.34795914992623,
          0.3767789490304829,
          -0.658851341040706,
          -0.4701089205133693,
          0.1514192759250086,
          -0.8862013823528041,
          -0.8326745044836539,
          0.7207242919912462,
          0.5618569148879606,
          -0.42224089862244374,
          0.9722320327108047,
          0.3713789523725508,
          -0.34246539960759304,
          -0.8628661196421854,
          -0.8144742955009865,
          0.10949932984528732,
          0.33780690204058983,
          -0.20546218868986155,
          0.01633550837316111,
          0.3033032684391872,
          0.6411921986841564,
          0.1733294989108558
        ],
        [
          -0.0963220765019499,
          -0.5284698362415594,
          0.2668529799475601,
          0.7004059254806176,
          0.25188155859436345,
          0.10834612177645009,
          0.5352587592077283,
          -0.6705204883960691,
          0.15602465909862695,
          -0.4593236387926727,
          -0.16306601717286062,
          0.5950076497068144,
          0.6262348869928349,
          0.08182030942033025,
          -0.8419301192596345,
          -0.3015131041561694,
          -0.41379049841609405,
          0.41147211201294476,
          -0.7588640890023108,
          -0.9932051852648403,
          -0.9856402948541305,
          0.9131806156986204,
          0.11357696101578463,
          -0.023326786376626663,
          -0.5500735987953265,
          0.5791938326630643
        ],
        [
          -0.5318268819864485,
          0.33656364686167795,
          -0.8654804160194289,
          -0.303295766947409,
          -0.9604008782750622,
          0.8691712677926551,
          0.23071748948384507,
          -0.6185803554089813,
          0.5891905842961447,
          -0.7394242264352069,
          0.10527037176614384,
          0.4411316882331682,
          0.5862325947615599,
          0.39799466073961076,
          0.7182566193373998,
          0.8034997186702411,
          -0.33560691982532553,
          0.3036483448290215,
          -0.7974209130653185,
          -0.522401259550274,
          0.5684730953229387,
          0.3753352322173893,
          0.5803652955403371,
          -0.21620134420340098,
          -0.9002922315673383,
          0.09167136936647458
        ],
        [
          0.9999421157675159,
          -0.3933521874398549,
          0.191843846270088,
          -0.8097711338885554,
          -0.6656441354959834,
          0.5772063573523678,
          -0.23599337312365698,
          -0.6297310619152314,
          -0.26328182871198424,
          -0.448737882843546,
          -0.1077302253670478,
          -0.3016996669168295,
          -0.8919354030381359,
          0.7196924472114314,
          -0.5255984126874995,
          0.9501193940229173,
          0.9206317898875727,
          0.10666318105847195,
          -0.7613463100561071,
          -0.4617903648149817,
          0.6808017072847903,
          0.9920087087880269,
          0.25852899946093233,
          0.73623089606012,
          0.5328144107889001,
          0.6412364783869953
        ],
        [
          -0.5037695358144123,
          -0.5543907453613652,
          -0.29049639408103434,
          -0.13158788994263415,
          0.17066242020751443,
          0.483728216311345,
          0.08627539228124337,
          -0.8930894691695699,
          -0.9914062401806947,
          -0.9843280540502735,
          0.18468602404180134,
          0.7196814024639404,
          -0.8384219786330513,
          0.8027667287190972,
          0.5415405966917086,
          0.026501499810164697,
          -0.3002743700032393,
          0.9060815553008612,
          -0.9925468122134744,
          0.07679696671446479,
          -0.7035197459664206,
          -0.967538484713381,
          -0.658397057007108,
          -0.20623107736486013,
          -0.3726997101721541,
          0.8318490968518759
        ],
        [
          -0.023251546088073782,
          -0.5868069525274568,
          0.6100643183060381,
          -0.7920130934597187,
          -0.13783539966667702,
          -0.718869467882215,
          0.027793167493485482,
          0.083671681044732,
          -0.4301288522098874,
          -0.6198306321670215,
          0.165447874250793,
          0.4941406336359129,
          0.5295383819502113,
          0.4579561296971455,
          0.2707635457491546,
          0.8569381386554669,
          0.37168211392160266,
          -0.9250026321094409,
          0.9003867974630331,
          0.1364783169098025,
          0.8160875338150255,
          0.09391141511158052,
          -0.618905202385734,
          -0.47396381968032464,
          0.9846367699130196,
          -0.5796686137787814
        ],
        [
          -0.6544702075818394,
          -0.8988436200757199,
          -0.3752846905256222,
          0.6644031983087504,
          0.9204093424910333,
          -0.17752752431456398,
          0.0603383840301408,
          0.6377459517352517,
          0.5898531603029427,
          0.033837113161465426,
          -0.134408953675496,
          0.9225366377736333,
          0.584794569771836,
          -0.5856272684993853,
          -0.5188630380074302,
          -0.1443288669644378,
          0.1482543545485293,
          -0.7066580892540397,
          0.19767847344328082,
          -0.10119876169355813,
          0.09149905604796071,
          0.40218160322997343,
          0.23037581932798723,
          0.36508724128995795,
          -0.057392523184242705,
          -0.8776499028386984
        ],
        [
          0.22823130844595862,
          0.7604770204165829,
          0.05893679232766402,
          -0.1684299825345219,
          0.6029877842587623,
          0.9648256937887107,
          0.7566023781970106,
          0.18110163057084372,
          0.4879563437363872,
          0.49142035946089546,
          -0.048942928689622356,
          0.4863456781224633,
          -0.2144305899399639,
          0.5125928064195682,
          -0.03285531408390718,
          0.35359460826060696,
          -0.10526359510394334,
          0.7277276407682887,
          -0.6327188713752794,
          0.3467336081443124,
          -0.7178967403140741,
          0.5562378300244375,
          0.047310042825985166,
          -0.7078899144450008,
          -0.025079380903288095,
          0.38194341062719817
        ],
        [
          -0.8052883362606669,
          0.004426697759287501,
          -0.7291536466958517,
          -0.2215115910165939,
          -0.09350880864746092,
          0.7950224795221028,
          -0.1428579850661953,
          0.4377594434690515,
          0.0008195130910171322,
          0.3406242547419218,
          -0.9427550669957829,
          0.9770599121609458,
          0.4781241182383513,
          -0.6750427784750976,
          0.428860459926351,
          -0.07332532417219051,
          -0.5429356264187188,
          0.999777098199158,
          -0.37506621073030955,
          -0.6231969810818296,
          -0.06111771209929695,
          0.9755914450031002,
          0.26796436112107047,
          -0.7489587483032603,
          0.5672121606649767,
          0.7696853772240377
        ],
        [
          -0.06282469613820085,
          -0.37998369910731333,
          -0.4125017843800234,
          -0.6570537763099047,
          -0.10301343773978155,
          0.6118215885826206,
          0.9545463052990275,
          -0.1964605503516692,
          0.4798000792969488,
          0.6272964992577368,
          -0.34514603531141086,
          0.2337828373414732,
          -0.9756546348256996,
          0.6014013719353286,
          -0.9071572545058806,
          -0.45783045475458306,
          -0.42984137200396244,
          -0.5602569087755065,
          0.9307174810720751,
          -0.5273530080421633,
          0.14842528054016513,
          0.4132774708323752,
          -0.13858140504170868,
          -0.34201223218640164,
          -0.05961627669254255,
          0.5440707117121149
        ],
        [
          -0.5836305001753004,
          0.7373717804750459,
          0.011909900851488464,
          -0.5082579049954707,
          -0.7009772124666929,
          0.4315674714718176,
          -0.19418446415242707,
          -0.6473086039881175,
          -0.4763368271036297,
          -0.9807955073803114,
          -0.7027495018571863,
          -0.2616652626193883,
          -0.6534380436776135,
          -0.08339903298055096,
          -0.9631150614829525,
          -0.9237040954083631,
          0.09538212886283581,
          0.8002481926480687,
          0.550576465697955,
          -0.6552413868960045,
          -0.4965644929159714,
          0.37301525818960224,
          0.40736329164379925,
          0.013673302825716105,
          0.11446116683094587,
          0.4885450422897011
        ],
        [
          0.585210863415695,
          -0.9696886303244592,
          0.16434658319623696,
          0.3131374263845639,
          -0.23612220250315974,
          -0.14756368810484766,
          0.4217751383977668,
          0.8621744396878015,
          -0.020453799592451638,
          -0.5394336997577682,
          0.4408509488712342,
          0.7331484483382489,
          0.10017709007785536,
          -0.10317835054428359,
          -0.6637512798964218,
          -0.4393068675913816,
          -0.6080191241774384,
          -0.9344056321093686,
          -0.8621788629089426,
          -0.5326922311609412,
          0.3954857778934573,
          0.7246484994553952,
          0.6718979644303631,
          0.42512133911674077,
          -0.4214562800663286,
          -0.6170290758219839
        ],
        [
          -0.11060031182872287,
          0.38225566775973263,
          -0.04649657076024183,
          0.914325320703804,
          -0.10384500212396497,
          -0.38500433533891276,
          0.5619492792369107,
          -0.6161080056329205,
          0.6639310397631584,
          -0.9541981959020622,
          0.4272642705115106,
          0.668378650169585,
          -0.0429905806858184,
          -0.8794239401376587,
          0.8078342698857899,
          -0.0627212540456259,
          0.9098252162778848,
          -0.1665652457354705,
          0.6189552964421663,
          -0.25838594702922,
          0.36706408159041226,
          0.7791528357535504,
          -0.7572432660549817,
          -0.5164846184835985,
          0.9899506356356131,
          0.06891160364801618
        ],
        [
          -0.07527470426274507,
          0.39108330880261866,
          -0.06909791284391464,
          -0.019232532290096804,
          -0.9191473571636941,
          0.19754072697338487,
          -0.9518450005648476,
          -0.04217577297650177,
          0.2657488329962219,
          0.44599723386324475,
          -0.5281313390189561,
          0.331501999147088,
          0.6293958803450566,
          0.24674180325699213,
          0.11981245272065477,
          0.6748106232422024,
          -0.7926542444013807,
          -0.35360468544793533,
          0.17061764498604792,
          -0.08751791999530445,
          -0.715161146653035,
          0.6346555665774731,
          0.3532846528341822,
          0.20063412288343963,
          -0.6886939558988854,
          -0.4072066021987224
        ],
        [
          0.5264511393581464,
          0.9532075026241362,
          0.7424985944218732,
          0.12349532461500523,
          -0.9556995818313179,
          0.9184470081760614,
          -0.15002429912042858,
          -0.754997294147614,
          0.3309582280606995,
          0.3136046658791969,
          0.5488163086553246,
          0.002078632452843454,
          0.8927565092113481,
          0.28480368459367433,
          -0.40803274243207444,
          -0.005715159083958143,
          0.7890154483601752,
          -0.26880845451599633,
          -0.35814018951193516,
          0.45799259357681765,
          0.6038081932762189,
          0.49959339921257584,
          -0.03890392552494615,
          0.8369518393212323,
          -0.18207087936677135,
          -0.8904447644625231
        ],
        [
          0.21957410557536017,
          -0.8561255998921586,
          -0.2711227167410417,
          -0.8341345032425409,
          0.7793663029020339,
          -0.0691226680425967,
          0.34838673439549495,
          -0.6264490099176652,
          -0.49594480935945584,
          -0.15237130476777394,
          -0.30786062160875693,
          -0.8057577369907396,
          -0.7902612545846119,
          -0.45639154251482617,
          -0.24760094567709223,
          -0.5651011944571434,
          -0.9837088927521997,
          -0.4648165483639659,
          0.587417954151523,
          -0.9771388665176806,
          -0.989428859200955,
          0.7404041952849958,
          0.3891615788918765,
          0.1999868105634326,
          -0.18225431291267613,
          0.6692704396832279
        ],
        [
          0.7185997848730414,
          0.7163289533093422,
          0.5097131372658879,
          -0.34575509509927094,
          -0.0027662651640139035,
          -0.3181958490530672,
          -0.4653165487655617,
          0.16617082119544335,
          -0.642571562511786,
          0.42546612860414346,
          0.8381852854105718,
          0.13478942987133347,
          -0.001533914364968636,
          -0.1836999235427501,
          -0.8001327549975343,
          0.285199941693534,
          -0.9215767575750453,
          0.3936874934522301,
          0.2274858394262722,
          -0.8583986715594885,
          0.40602700968616756,
          -0.9309991505004229,
          0.9094952655221589,
          -0.007917892521322578,
          -0.23846468650727948,
          -0.02974289869393454
        ],
        [
          0.1595121760514413,
          -0.5984492245342563,
          0.39394356720631496,
          -0.707190561832062,
          0.8406005948659061,
          0.947730593434323,
          0.45719017366632353,
          -0.614081576450203,
          0.6368579013028677,
          -0.05885732291361001,
          -0.0015468678869834385,
          -0.7941332900262419,
          -0.2768740860207932,
          -0.649761650746985,
          -0.8262876013740152,
          0.7265739701471448,
          -0.921664118966256,
          0.040347287846932645,
          -0.482042387352803,
          -0.6976233699890302,
          -0.2453730899913915,
          0.6453707434118481,
          -0.051353088229971755,
          0.4822179681904626,
          -0.5971552945676124,
          0.4368745979590072
        ],
        [
          0.6364712744833736,
          -0.5040224094110333,
          -0.8379172538852184,
          -0.31143237761136033,
          -0.6806409540337586,
          -0.6135686369759137,
          0.4988278356833553,
          0.2244689969147904,
          0.6439403210342047,
          0.5187073147213177,
          0.5990441995266196,
          0.8766391314647259,
          0.5556726940140284,
          -0.596081863970672,
          -0.14843482042038203,
          0.023562583724311414,
          0.5923322753707458,
          -0.12652972107442384,
          -0.9227151829401752,
          -0.6251873997395951,
          -0.5660457114829591,
          0.7853350806296677,
          0.1426699312958608,
          0.769028690506486,
          -0.6931442422551444,
          0.845518586965758
        ],
        [
          0.12872624242203234,
          0.07983069647043761,
          -0.7020122639898663,
          -0.20981866469206945,
          -0.9421415782974654,
          -0.17227661785570647,
          -0.139281923568096,
          0.40024926175446374,
          0.8427940487497216,
          -0.0798198432519186,
          -0.16005881522051868,
          0.2862835610018879,
          -0.7963246219523394,
          -0.18271090814976954,
          -0.6169146855822916,
          0.6486739316458996,
          0.8987057892785615,
          -0.9121074270677674,
          0.6443500015005872,
          -0.9410764123832107,
          0.6577824874417999,
          0.42980582035295356,
          0.969219097869175,
          -0.09722731221379743,
          0.5010412445889307,
          0.42363110985717634
        ],
        [
          0.437475454556276,
          0.7582896434734299,
          0.534562568074253,
          0.7605475511360589,
          0.2478167755350218,
          -0.037361777830488,
          0.16783529193488844,
          -0.6182000807088164,
          -0.2549303766011597,
          0.21729304951511996,
          -0.565631121582955,
          0.9689866386042516,
          -0.7184059445547615,
          0.576020808526774,
          -0.49049289004765484,
          0.5975181617344767,
          -0.2116635772419897,
          -0.1989327094276232,
          -0.8077870676002179,
          0.23224360261737176,
          -0.6545094155784863,
          0.4151400787963493,
          -0.5944567089285813,
          -0.5588255914573834,
          -0.0806455029494344,
          0.9230690040635869
        ],
        [
          0.5794945026116616,
          0.9217585984988528,
          -0.16753321641766306,
          -0.6464319377667662,
          -0.8682010790594603,
          0.2516683259313812,
          -0.529821784953024,
          0.041979393682895605,
          -0.5469645385551256,
          0.27128817904547997,
          0.060361696776629836,
          -0.8175196411411747,
          -0.8463819544742799,
          -0.6983559823998713,
          0.34438080798346515,
          -0.44706322534357046,
          -0.7413147361143968,
          0.8064124183190726,
          -0.15333921352159607,
          0.28010875632462673,
          0.09773556149467688,
          -0.515110521963527,
          -0.12989370036259307,
          0.20009150480243765,
          -0.005514053663414176,
          0.7403130344169946
        ],
        [
          0.6853561725615027,
          -0.9641090073784808,
          0.42142174102289376,
          -0.9375949454608898,
          -0.10499211698724809,
          -0.444423042306588,
          0.7164369277729494,
          -0.2035334402379516,
          -0.05878569546329593,
          -0.6378398635176896,
          -0.8723670151195475,
          -0.40404162645644437,
          0.2727942775441159,
          -0.5269898003549411,
          0.5095441398908989,
          0.019943239066110507,
          -0.5764093108822044,
          -0.9446634941627101,
          0.7312363288281198,
          -0.06773978255328905,
          -0.9243504205795456,
          0.6529299104308535,
          0.4396539645653774,
          -0.04527205380866661,
          0.38697026578011573,
          -0.323692027787559
        ],
        [
          -0.7481354575971477,
          -0.5166453969916527,
          0.3185582764339927,
          -0.31205455227860535,
          -0.5412057385433637,
          0.06454476383959662,
          0.7188172361970118,
          -0.26577058160750955,
          -0.16828013008806741,
          0.23525458906299668,
          -0.5155858639335318,
          -0.74140765386179,
          -0.8972514227944806,
          -0.8154103356084508,
          0.8495654626688218,
          0.38388302140392727,
          0.04671554522412369,
          0.6675607334280087,
          0.6955636874541928,
          0.35141708500643976,
          0.5415375582717277,
          0.2314067601344152,
          0.9211305087734505,
          0.5082545359091919,
          0.11905085559939987,
          0.9789980898529673
        ],
        [
          -0.6221292687030577,
          0.042783361910091466,
          0.3508856588025635,
          0.8372528279721014,
          -0.03398267718011705,
          -0.812329845213345,
          -0.5872145499431136,
          -0.19799262314791988,
          -0.5673098037249822,
          0.10201641328767441,
          -0.1921055724349796,
          0.008931393943847565,
          -0.3087383488306876,
          -0.1161218559145758,
          -0.6950912907507616,
          0.16391775733838765,
          0.8087471257521699,
          -0.47869411848399257,
          -0.5482626844058862,
          -0.19471741136746856,
          -0.20710714134594332,
          -0.12214963533753131,
          0.6040519716523864,
          0.12335240752846244,
          0.13281344093382574,
          -0.5720248242018697
        ],
        [
          0.549370891666725,
          0.019816281476579434,
          -0.17354816342871926,
          0.8190469467658945,
          -0.926868325393418,
          0.18624475520756012,
          -0.8351499171369525,
          0.23240615942030773,
          0.10233553806566809,
          0.8100213473876821,
          -0.6062941539820283,
          -0.7037458441120652,
          -0.0017943894077976363,
          0.8805552120407278,
          0.7124690441317607,
          0.47841517956153834,
          0.6743753010995928,
          -0.062306266624594375,
          0.21945166706110708,
          -0.028779883507490833,
          0.7664405960077849,
          -0.2407466276267114,
          0.4004237925751142,
          0.32423492928126785,
          -0.775966848340746,
          -0.9329875608877867
        ],
        [
          0.6084388413246855,
          0.2786692126145336,
          0.6436629995473586,
          0.7132050101831362,
          0.5419758124669709,
          0.6551285097296122,
          0.5535492117745759,
          0.4817494536293765,
          0.8416619767325397,
          0.6629646742127602,
          0.17662068867143232,
          -0.5508864876565223,
          0.8936896059214179,
          0.22592352989822984,
          0.1828246506776361,
          0.020279100097211566,
          -0.3833995617311199,
          0.5320372456250106,
          0.08516362450821546,
          -0.6049350275682626,
          0.6954404802018179,
          0.862566158703751,
          -0.9307062333207758,
          0.572394814976533,
          -0.1763558820825193,
          -0.5515536782500774
        ],
        [
          -0.3997590941613056,
          -0.8996953651428601,
          0.7814368157804237,
          0.34851051708253267,
          -0.352640824967551,
          -0.0654948366233421,
          -0.13998684870610134,
          -0.5591893735856632,
          -0.39283545256338437,
          0.02398530325838899,
          0.8104567749412444,
          0.05420071140587113,
          0.7739037909026689,
          0.6793870659613186,
          0.32272278429868106,
          -0.3723240805862591,
          0.0596699717284741,
          -0.3268107621250913,
          -0.6867132187317038,
          0.2624350026398523,
          -0.6511805845625334,
          -0.8460577505330293,
          -0.27655424987507815,
          -0.8849804511245463,
          0.47125943896375455,
          -0.292072600459917
        ],
        [
          -0.5258613788842044,
          -0.6816084287916702,
          -0.2849605985073116,
          -0.7376716504459329,
          -0.858848619339142,
          0.3747863564642657,
          -0.4422635695305126,
          -0.74297760886362,
          0.14759332184705332,
          -0.19795751259684558,
          0.5861147377047045,
          -0.40872810201852117,
          0.3883476610639849,
          0.9492542700530275,
          -0.5461633902908476,
          0.9266190052548344,
          0.15682193032670755,
          0.22622903445758813,
          0.6431843981140899,
          0.27154985987411395,
          0.5663563938038396,
          -0.37684386058602914,
          0.25433567066813345,
          0.4703348309164299,
          0.49927867420194505,
          -0.8030673251572489
        ],
        [
          0.3463992987194169,
          0.9813689573195039,
          0.88888078416886,
          -0.09427820575315149,
          -0.9888773466882308,
          -0.8327495134778318,
          -0.9026862109151375,
          0.7926046150935262,
          -0.39931932961290073,
          0.5453964991464628,
          -0.3007350411273799,
          -0.8819557689311213,
          0.4235217431288605,
          0.1853909286542872,
          -0.9335327554575505,
          -0.6698204054415238,
          -0.504019602458252,
          -0.8778744766744022,
          0.6748327458987655,
          -0.3640780126717329,
          0.22494151164741583,
          -0.9732156219304571,
          0.07817277550946655,
          0.03257857555714927,
          0.1614529371398319,
          0.029502082109965855
        ],
        [
          0.143407855834236,
          0.21741499244764073,
          -0.7622717759047373,
          0.8464748641992177,
          -0.98516181075246,
          0.6487041215247815,
          0.26052342519991556,
          -0.9075385791988231,
          0.6033396469626016,
          -0.10132933809056643,
          -0.3329373616549136,
          -0.800024951060099,
          0.781526353628041,
          -0.040396674198479365,
          -0.6804824145840418,
          0.12503712921074883,
          0.4178624293949387,
          0.6285563274033164,
          0.12073917688508029,
          0.1512316862683798,
          -0.7979819408912678,
          -0.6965215534887264,
          -0.988100407410041,
          0.36278408726870026,
          0.4425288852800626,
          0.06523410405321783
        ],
        [
          -0.16724869895115213,
          -0.10823355585461258,
          0.378840263171917,
          0.22602304591304478,
          -0.9452947559020739,
          0.9351404515967032,
          0.18742304917472752,
          -0.3031379649982022,
          -0.41560057971381226,
          0.896919317755986,
          0.5540188215693527,
          -0.891207071191535,
          0.9679068210830302,
          -0.7095343032351091,
          0.7010072184508693,
          -0.009116899677249268,
          -0.5140219257461296,
          0.8578151367420983,
          0.8405307130133715,
          -0.8573940545520866,
          -0.4055434034893266,
          0.00863920155752429,
          -0.8956030526269729,
          -0.7927844622370306,
          -0.3747399768157482,
          0.015365562865255367
        ],
        [
          0.6477672714069793,
          -0.4766578818595175,
          -0.3684668811447618,
          -0.5653622715519231,
          -0.928062361807259,
          -0.26099514358145837,
          0.6873147101736894,
          0.8583982996394295,
          0.49560419842975634,
          -0.1862407289678143,
          0.9152429519540244,
          -0.9440884884945138,
          0.19270024249097628,
          -0.9725552301136622,
          -0.05174194819468525,
          -0.20550671845120538,
          -0.8490986131906773,
          -0.7329849585477282,
          -0.7049117507829572,
          -0.5042996166090761,
          0.14281328452726427,
          -0.6535165571873318,
          0.5866486513212519,
          0.7508110628303841,
          -0.5810376438927556,
          -0.6332184440327255
        ]
      ]
    },
    {
      "name": "layer_4",
      "neurons": 26,
      "bias": [
        0.0,
        0.0,
        0.0,
        0.0,
        0.0,
        0.0,
        0.0,
        0.0,
        0.0,
        0.0,
        0.0,
        0.0,
        0.0,
        0.0,
        0.0,
        0.0,
        0.0,
        0.0,
        0.0,
        0.0,
        0.0,
        0.0,
        0.0,
        0.0,
        0.0,
        0.0
      ],
      "weights": [
        [
          0.08394597224691003,
          -0.3613238310153264,
          0.17322380130168424,
          0.2525402854015397,
          -0.37838508925938363,
          -0.675491827071681,
          -0.740533849338987,
          -0.6965945868289132,
          -0.6824366871887662,
          0.8425452323371199,
          0.1706587616156119,
          0.7618193626359664,
          0.8786684748944684,
          0.9484444671795755,
          -0.08616409242990208,
          -0.9986264297849896,
          0.3098525046294607,
          0.29350944264235723,
          -0.5636047196696905,
          -0.3846652568175113,
          -0.36333588085077273,
          -0.996807920820262,
          -0.8631414471446763,
          0.2986255301482519,
          -0.04445753860199697,
          -0.9706963041849421,
          -0.348462440354695,
          0.10600439166393416,
          -0.42761305456283516,
          -0.8045137079158986,
          0.27231445120086994,
          0.5248228747992849,
          -0.1890552049119425,
          -0.9349202371463254
        ],
        [
          0.32003558509063845,
          0.5040565694342987,
          0.041843321198379746,
          0.8155644857959621,
          0.7422052516174868,
          -0.9653192596852729,
          0.04539849933952356,
          -0.8278827035302776,
          0.13880909095660976,
          -0.740452324427652,
          0.9894326333825694,
          0.9038586977200824,
          0.49752398860955704,
          0.29871744265993905,
          -0.011469135070637293,
          0.5503032024863697,
          0.3486323830279776,
          0.8139105181776047,
          0.9283261974340873,
          0.16242281237440803,
          0.1989484827242749,
          -0.17521645277042786,
          -0.9678749915603777,
          0.5142395615695494,
          -0.16022877161201587,
          -0.3854293622160714,
          -0.6689646991190543,
          -0.48690098692151484,
          -0.7653946047262563,
          -0.15088203528027555,
          0.8619336733514202,
          0.5976243490349071,
          0.939931475685372,
          -0.8786991612329671
        ],
        [
          0.39408579675357736,
          -0.646365455740153,
          0.07484929536722418,
          0.3643516130397908,
          0.1817829277277081,
          -0.5868887356182404,
          -0.9165854954819146,
          0.027233462108252615,
          -0.5778168475620351,
          0.07519944594860517,
          -0.9181870988433503,
          0.5143700550881982,
          -0.8278379895712207,
          -0.6082261555550079,
          0.47781375196049547,
          -0.22741429839837735,
          -0.9113198963330078,
          -0.9256013999401502,
          0.9983874816945812,
          0.15812464788126346,
          0.4430679597564886,
          -0.7722287046099154,
          -0.551581065502001,
          0.12183117354018025,
          -0.7570155935534861,
          -0.12945298091537838,
          -0.6529734989137954,
          0.13484555613123117,
          0.8799788357696123,
          0.0732822926624388,
          -0.40374692685310776,
          -0.6886867125901146,
          -0.2903813753387119,
          0.09337553811311183
        ],
        [
          -0.43189918276741945,
          -0.15015725142907987,
          -0.35845580407032096,
          -0.6104118198886146,
          -0.3382054557394225,
          0.718057128618611,
          -0.9788053866426794,
          -0.10458447146223748,
          0.6236593374925774,
          0.6463159446767197,
          0.7718657322712004,
          -0.34643994588445537,
          -0.22792561815271495,
          0.23730620740494746,
          0.11096699355740025,
          -0.5343126624155718,
          -0.07269249551311563,
          -0.9929049873450098,
          0.26184540878049245,
          -0.42565142245148624,
          0.4323494150977307,
          0.03378847615115266,
          -0.4487753244668522,
          -0.6734498765314809,
          -0.8658836578404854,
          0.7964289944467235,
          -0.3268651446672728,
          0.14071846421350864,
          0.7717106244742415,
          0.2907091524547971,
          0.36698746885460265,
          -0.710008793295154,
          0.5122170032209423,
          0.6406600101895406
        ],
        [
          0.739539927601683,
          -0.7969248080900826,
          -0.6546080864887738,
          -0.1051563422340076,
          0.6655316180443465,
          0.256389086786305,
          -0.7789471684168696,
          -0.041840160921485126,
          -0.23552686400114697,
          -0.8554559409405136,
          -0.8671538482393164,
          0.685958343055451,
          -0.9809368257562951,
          -0.10840708651896924,
          0.5678596586283742,
          -0.1494303373752086,
          0.34607182351282884,
          0.37564067064147433,
          0.2846099575302574,
          -0.494159210344852,
          -0.8453437046916887,
          0.8319425959731916,
          0.6458362760768159,
          0.8033881028123868,
          0.3100835517492142,
          0.4943310845916129,
          0.6234979203514284,
          -0.6745589009726707,
          -0.9760581112820115,
          -0.8440174823819537,
          -0.04877903578929543,
          -0.081630134739469,
          0.6628769021027918,
          0.6385021988526405
        ],
        [
          -0.16531803589490845,
          -0.9390533761573543,
          0.16600258680196034,
          -0.02608999367698428,
          0.32769327994872754,
          -0.9153646417918799,
          -0.5600090806663791,
          -0.23520700529513316,
          0.03370851112785944,
          -0.19066929404655686,
          0.7722338987588873,
          -0.3666507089894371,
          -0.4251969556970312,
          0.033910643539674545,
          -0.30585802905475923,
          -0.05858094898018762,
          0.6616687978936326,
          -0.7675141594351778,
          -0.46849266033056347,
          0.15786101961206356,
          0.22568558007242912,
          -0.3519535430032561,
          -0.35172610866457377,
          -0.6490904629267782,
          0.268340513095916,
          0.5041755147105922,
          -0.29045136596603194,
          0.33252658561135084,
          0.42873854059462935,
          0.2223496949349444,
          -0.005394133375871135,
          -0.5626829872373937,
          0.3691680916379465,
          0.46260061685296816
        ],
        [
          0.9444713472079573,
          0.5446204794017726,
          0.569656777614497,
          -0.1401926118962995,
          0.7889447625109041,
          0.28041348962382884,
          -0.35643046850634064,
          -0.5958652644586266,
          0.6345814663385148,
          -0.7608260347879932,
          -0.6492423433629213,
          0.19836663874784843,
          0.7668165540406626,
          -0.3706674241508574,
          -0.3038815659753422,
          0.6227054510997092,
          -0.8283190507629634,
          -0.19688942389688635,
          0.6575064983794601,
          0.26970614421883154,
          -0.3508943225219232,
          -0.5864472748566834,
          0.7761848226774037,
          -0.5132249660629415,
          -0.16149053609309472,
          -0.8420251191505563,
          0.3831833147484742,
          0.5162094510541844,
          0.6528159514273939,
          0.9107734947798207,
          0.059959650593756075,
          -0.026973704341678006,
          -0.34331370339614864,
          -0.11902706083448766
        ],
        [
          -0.8051827331814903,
          -0.19600194536410598,
          -0.05855346738908884,
          -0.1937289067256056,
          -0.6566759308192134,
          -0.43813768029059097,
          -0.13610887515155756,
          -0.46322309687422836,
          0.7911004692635639,
          0.9577671534318444,
          0.47734775484674974,
          0.13697078886593594,
          0.8347378970524877,
          0.48660530704370086,
          0.1953351432995447,
          0.2781558560381827,
          -0.035709514958009336,
          0.8973714608237284,
          0.11106675712495506,
          -0.0779412506263828,
          -0.3034440897713402,
          -0.08388962886142037,
          -0.33667205270066436,
          0.9739758023050769,
          0.3490982274529695,
          -0.7247438072048427,
          0.9161334745375305,
          -0.37301139773605985,
          0.19507945762427892,
          -0.605618904480179,
          0.16675935221756255,
          -0.30353313021411155,
          -0.8802287812601772,
          -0.5075432527742461
        ],
        [
          0.31805718153829865,
          0.8346457528374664,
          0.4844250313732441,
          -0.598446751906859,
          0.24557691543939542,
          -0.023503788433580697,
          0.9806393397329733,
          -0.23852239358507932,
          0.7227906223960141,
          -0.22586819262581748,
          -0.3470221353677272,
          -0.44478211330990414,
          -0.32307918382733747,
          -0.24725012088015585,
          0.12197361437849019,
          0.8810675305370481,
          0.40585887565122203,
          -0.8777737311761773,
          0.4595694569959934,
          0.7951113262164617,
          0.5950497890720126,
          -0.6511578659286119,
          0.45828990285610427,
          0.413479776158336,
          0.057730037316980454,
          0.36238860514655724,
          0.30626249842467335,
          0.006043738273624477,
          0.7108520148811697,
          0.3609976117179341,
          -0.952887203672198,
          -0.6565391250951065,
          0.5399981348716267,
          -0.9817856815853556
        ],
        [
          0.5760107382672386,
          0.26908547351672896,
          -0.44462201438272775,
          -0.7118792899123674,
          0.02595333375434672,
          -0.5022913759426237,
          -0.48218033248716585,
          -0.29112708475044413,
          -0.8346424714827207,
          -0.5588620521126844,
          -0.08292545401299489,
          0.2488957409125092,
          -0.5659412398904542,
          -0.9395897946939582,
          0.8444978083152666,
          0.7413570731450874,
          0.3930500968029593,
          -0.2502763781615005,
          -0.008926545022361676,
          -0.7733172032670275,
          0.25755375885664233,
          0.6164509634033823,
          0.7593552296002588,
          0.27891335429186004,
          -0.8600920292402825,
          0.6285956997489912,
          -0.8511908651192224,
          0.7600007532712689,
          -0.6287459216395368,
          -0.4965896310500193,
          0.5755537930392913,
          0.7608839669386667,
          0.5018732546226428,
          0.6936628327477472
        ],
        [
          -0.1923178328854811,
          0.09460761603629297,
          -0.7416859354660787,
          -0.17106413601405612,
          -0.5028740203589703,
          -0.8667985705200023,
          -0.9021397434190686,
          0.2816383194471497,
          -0.605817234794124,
          0.7562201718902992,
          0.6249391960541937,
          -0.03745580370432133,
          0.7433925690927443,
          0.22191952360748446,
          -0.26058623723018215,
          -0.6332310632702423,
          -0.9875220311264326,
          0.06702646387368216,
          -0.7423291622258639,
          -0.09183750900889232,
          0.5137540795365076,
          0.9614653725368214,
          0.9043414081444665,
          -0.6919238114122446,
          0.6078747778901603,
          -0.030105677809444398,
          0.2255521544162402,
          0.03924611109579046,
          -0.8005539219389599,
          -0.2444308730933289,
          0.8892524982762295,
          -0.15647184031385541,
          -0.07680355223271329,
          -0.9728214964665538
        ],
        [
          0.6173336050678779,
          -0.19827157496328085,
          -0.8765332909307844,
          0.3108142027604146,
          -0.26132294327486205,
          -0.15222807252036819,
          0.20313500915695504,
          0.973597676444037,
          0.23985600364611037,
          0.4735991975944751,
          0.10029334129833734,
          0.250751653684792,
          0.8489293967230729,
          -0.14118958207791965,
          -0.4497323534098614,
          -0.022790368456900856,
          -0.11134352844519357,
          0.13583753134776733,
          0.054927386269656875,
          -0.6426313880643963,
          0.42300936248736654,
          -0.05666904010055607,
          -0.8735937924908868,
          -0.4295953532450214,
          -0.6919516485568937,
          -0.7923309705062105,
          0.6115969184569898,
          -0.9663468943906643,
          0.18609112826942997,
          0.13566212097346675,
          -0.07808773144118297,
          -0.20198258252135748,
          -0.9887406587924237,
          -0.09567124838599961
        ],
        [
          0.13593007629053,
          -0.3904844780706078,
          0.29623206404853564,
          -0.8762945409944272,
          0.9371137669988896,
          -0.1423963666159942,
          -0.23227969053075026,
          0.4487374700313975,
          -0.4477406930109895,
          -0.7628490868961444,
          0.2933104785038647,
          0.1863195569993239,
          -0.45446937795975106,
          0.10573617084525355,
          -0.2629035664236874,
          0.9774050931782627,
          -0.35692198200954284,
          -0.3383192614785806,
          0.08594032282758968,
          0.7235523881319756,
          -0.19796488262295475,
          -0.8767373615257046,
          -0.05911289906508932,
          -0.8303080592117922,
          0.37185919103972576,
          0.4302978194829945,
          -0.9250252790778166,
          -0.9937848735180375,
          -0.673372784127144,
          -0.25061289069948556,
          0.2924385342349136,
          0.6059075803214915,
          -0.38302954817378265,
          -0.4964392556512982
        ],
        [
          0.49884108349295153,
          0.829879728051458,
          -0.8589954504105772,
          -0.545052497374789,
          0.6791691580034249,
          0.5476513448696672,
          0.845970668032983,
          -0.485710941049462,
          -0.36028063424526424,
          0.586372051521663,
          0.38819335346060746,
          -0.01957308549692116,
          -0.6454482178626195,
          0.829989936706121,
          0.42170944396618304,
          -0.440027582532432,
          -0.5969342059397931,
          0.6206755438289651,
          -0.8251155439174418,
          0.4221373746580701,
          0.15056434381115258,
          0.6911258626172818,
          0.4005757419672562,
          -0.3473280912420582,
          -0.8741452118177784,
          0.32059740161925077,
          -0.7444436199180147,
          0.6028495402474479,
          -0.28503673960337683,
          0.9811684634271933,
          -0.14400699053439503,
          -0.28679609853113597,
          -0.5027495304712477,
          0.853220512042818
        ],
        [
          0.2864748625837301,
          0.7189839120527313,
          -0.5919906870800455,
          -0.3387972420794201,
          0.34483662103120416,
          0.5042074914389685,
          -0.6037900166996075,
          0.22440303562428698,
          -0.42914215280557744,
          0.9752958653544612,
          0.6352600574094114,
          -0.3834010487131989,
          -0.8265725573320026,
          -0.7507225177802572,
          0.942424612496215,
          0.8982025714618032,
          0.3152577477765248,
          -0.11818668726221926,
          0.23520514608990872,
          0.6375890118235219,
          0.40660892006771054,
          0.5226778790468007,
          0.29136081743222575,
          0.7678750137565884,
          0.7432602957043137,
          -0.47898099743444056,
          0.02341437589688833,
          0.9525736811739363,
          0.5178542114622045,
          0.7244725089351649,
          0.594448324985724,
          0.6778305870080319,
          -0.10728419759327168,
          0.5988120390644847
        ],
        [
          -0.4768089975800063,
          0.3260290336091187,
          0.6475822658773456,
          0.8899160334979419,
          -0.28352069159840565,
          0.13281969455502174,
          -0.5903864297157511,
          -0.0035765825726103984,
          0.6302232699821904,
          -0.13789256200639644,
          -0.005307726950069869,
          -0.5885570674117859,
          0.02208871068421292,
          -0.8947600899408088,
          0.48858311116251807,
          0.4600042426827957,
          -0.4333223323320117,
          -0.07409502016035141,
          0.6828949675013933,
          -0.4252273241232616,
          0.045005588030923915,
          -0.9977527541889819,
          0.7957851263432865,
          -0.8140505995940879,
          -0.6952785153109078,
          0.3707448603846588,
          -0.11279949238515385,
          0.053620183643407815,
          0.07106570138261459,
          0.19429575258248488,
          0.3446659912230561,
          0.771934038162988,
          -0.8631728243477816,
          0.25132088757819604
        ],
        [
          -0.4095303387249727,
          0.6681625514970944,
          -0.9386133310307518,
          0.48326788344661464,
          -0.7989910588831968,
          0.6082594941098542,
          0.7450383044390099,
          -0.013204005254845663,
          0.9078102875259504,
          -0.9828729263568716,
          -0.644665219847955,
          0.7082779280780427,
          -0.48066712962573854,
          -0.5163414694405064,
          0.9500826861379092,
          0.18159943458404837,
          0.9172340008372641,
          -0.15530746435185616,
          -0.7998438130262779,
          0.7461438859890479,
          -0.47143850127746645,
          -0.3264008492443444,
          0.385146675208883,
          -0.925962870541231,
          0.9333384627395522,
          0.718587971284063,
          0.9821572393961979,
          0.86188099814767,
          0.6610893040724379,
          0.2600693885456793,
          -0.7971639676649533,
          -0.17356261435632248,
          -0.6206029523625451,
          -0.43300736789213823
        ],
        [
          0.007117304693504023,
          0.8645589260146129,
          0.027514140052264047,
          -0.2334822190631205,
          -0.468531264922617,
          0.7666933558279267,
          0.6774051643981696,
          0.02440824071101111,
          -0.17036671446830476,
          -0.7277376375490852,
          -0.08023796279384476,
          -0.8758881481144012,
          0.7685960209727973,
          0.9688814352224238,
          -0.17240223485695583,
          -0.28161997505559766,
          -0.1988452430990506,
          0.4059877907489782,
          -0.9467712051173869,
          0.5937658222028914,
          0.012792986368143744,
          -0.7570541821843935,
          0.7173213734077644,
          0.7208044893590349,
          0.4176637637311651,
          -0.16455435528045648,
          0.13945601991008316,
          -0.5051847460178538,
          -0.5799984752695344,
          -0.6920365784978277,
          0.8040189689986892,
          0.2949530085385177,
          0.4174105532834367,
          -0.7518405554041583
        ],
        [
          0.550852927114434,
          -0.8490908350334669,
          -0.8427549181556724,
          0.7918491716778229,
          -0.46823893042453846,
          0.5734535512388657,
          0.9371240652596915,
          -0.9528082743452573,
          0.7907969288993726,
          -0.5230974905278507,
          0.3574774765584485,
          -0.4930143509402123,
          -0.4885546250578139,
          -0.9307333561751212,
          0.9311931744062385,
          -0.8410740973887034,
          0.7975010493131749,
          0.00810255476405164,
          0.5429723271629416,
          0.26826119161698103,
          0.44572375299007194,
          0.7152642782905492,
          0.7811188348259062,
          0.6805415028761126,
          0.9606052624764412,
          0.43454881764602304,
          -0.8299523585581845,
          -0.5209006507225447,
          -0.8840928332059868,
          0.12688151533983505,
          -0.0670055565638108,
          0.748225052824641,
          -0.35608634148948237,
          -0.8455592837370423
        ],
        [
          0.3977824739483369,
          0.11887594799404444,
          0.6084754179542564,
          0.6262782067296522,
          -0.4784148652850939,
          0.7819583635579475,
          -0.46214865952700257,
          0.21581564142421739,
          0.6171722560464261,
          0.8036852922660351,
          0.4982718717185235,
          0.6758627659226217,
          -0.5939936557033196,
          0.5121110855425783,
          -0.6809368794553601,
          0.7485888026189078,
          0.6655134237631193,
          0.8834810966674636,
          -0.75259341123993,
          -0.851430071994161,
          0.8368383082880473,
          0.25065561574201056,
          0.5731400648574068,
          0.8758374323155456,
          -0.7968272334358069,
          -0.8111835724029233,
          0.9577368262567247,
          -0.5920715167813215,
          -0.7214423323269361,
          -0.9624815287614226,
          -0.7788945653578829,
          -0.4103898477164456,
          0.839700042456142,
          0.5636568448219852
        ],
        [
          0.5169677248619868,
          -0.771678972277829,
          0.5799817622519965,
          -0.1476009933913336,
          -0.4399442984820856,
          0.13559350177482954,
          -0.031234563073541333,
          -0.15034689189667083,
          -0.1671518181047824,
          -0.7994625230142107,
          0.3279014416856407,
          0.926483776229664,
          0.3982342857840784,
          0.4935308499774498,
          0.4783184296238052,
          -0.0562899681931619,
          -0.23001893383574834,
          0.9834392403108678,
          -0.6808968619853812,
          -0.8340620202477573,
          -0.7936317971833156,
          0.6386565002809663,
          0.7408504051979425,
          -0.04208980955282948,
          -0.5275763861946892,
          0.6138011969430537,
          -0.6308591824004319,
          -0.16583134367304564,
          0.13603181430491995,
          -0.7998402705316974,
          0.4280900552600646,
          -0.5058135952279463,
          -0.7351567106536132,
          0.8395858098433737
        ],
        [
          0.24933919924183923,
          0.055427240641615416,
          0.4053169324185142,
          -0.03426601094381376,
          0.5572801209066753,
          0.5564983243506099,
          -0.9621260104398794,
          0.29832120531426654,
          -0.9200307966911028,
          0.2163516281410518,
          0.41549568061374687,
          0.9902166513702011,
          0.5282221807499647,
          0.184195794307918,
          0.48114770174940236,
          -0.83512335757351,
          0.6917552239614613,
          0.2707593529552892,
          0.17868624833883962,
          0.9888890383867266,
          0.1750690138675417,
          0.0909260069625546,
          0.7060895767660247,
          -0.97913694613348,
          0.5652493431307088,
          -0.765860915933515,
          -0.9406090489282877,
          -0.7778902533317689,
          0.5198632161931864,
          0.40131420246958704,
          0.8963610470485559,
          -0.3954305360624326,
          0.08967569889822946,
          -0.5805908443218704
        ],
        [
          -0.6357138584211051,
          0.9701967262741997,
          -0.5988355868729853,
          -0.5713708085541669,
          -0.8262991078149946,
          0.5529975559544631,
          0.9370287369939447,
          0.9990269682418254,
          0.007441691039901999,
          0.5352212143926349,
          0.9850709193682063,
          0.4364706671171128,
          -0.3718147140412149,
          0.210014693974109,
          0.27536804615135724,
          -0.6103187495057296,
          0.32797474727080966,
          -0.3812635584187254,
          0.2426553214684979,
          0.78274657944852,
          0.9153954434702047,
          -0.372566154857066,
          0.3130725878667209,
          0.5955060908340004,
          0.9807715453287151,
          0.07927106312999532,
          -0.548355005990232,
          -0.2743918735062312,
          -0.31976684862986415,
          -0.7451461725356316,
          0.20031486935599574,
          -0.460182297080044,
          -0.0011923887588558557,
          0.7480326923094602
        ],
        [
          -0.4793629612225312,
          0.7391567893000932,
          0.7187037365537128,
          0.7300392961215536,
          -0.15767430559610607,
          0.967752225256024,
          0.2609044679962067,
          -0.8499425587261713,
          0.08200056522087129,
          0.2010973179288753,
          0.9692006978231944,
          -0.918741668821331,
          0.809956497453145,
          -0.3095659709959253,
          -0.12026960956671973,
          -0.9799394051830506,
          -0.6437016874633794,
          0.13510572979965274,
          0.6918823418864912,
          0.2216264658915108,
          -0.49762313709941,
          -0.04503780200667351,
          -0.2773811712021814,
          0.08179421792421859,
          -0.9994308035671775,
          0.10125609497436105,
          0.2676229748579817,
          0.30712541412549954,
          0.45970505082148194,
          0.7416058023896028,
          -0.2465424458087433,
          0.4519912548842284,
          0.048341460505577194,
          -0.5019106148556784
        ],
        [
          0.15850829362357755,
          -0.902944912251366,
          0.011441620491857929,
          -0.7995454214223283,
          -0.9864835761275368,
          -0.5232595442328776,
          -0.4681036494931121,
          0.007156408639311884,
          0.6310756936100459,
          -0.8774498303161395,
          0.6307879518215829,
          0.7481974259416095,
          0.8923740868359562,
          0.24240096141069523,
          -0.9702385853654303,
          0.19819305298619683,
          -0.7956086453690983,
          -0.6858794042179095,
          0.27200678834362724,
          0.12178646321715236,
          0.2856307622654828,
          -0.4788748709860702,
          0.8253937544340471,
          0.8043982120320399,
          -0.222004441093395,
          -0.31595295261192313,
          -0.9145735741326277,
          0.513607436362594,
          -0.3270925560161644,
          0.18316497441050972,
          0.3197474310810069,
          -0.29687164136776656,
          -0.010995838304693084,
          0.4368671938772075
        ],
        [
          -0.7337007899320509,
          0.14780889538247766,
          -0.783354790108417,
          -0.17984336548981128,
          0.7683887201671329,
          -0.23546616482041371,
          0.8045455053192263,
          0.5472243385242228,
          -0.4790238448572335,
          -0.2887114678409033,
          0.23141996484054705,
          0.37251636810627,
          0.5530159758406163,
          -0.9352661818010679,
          0.4888119489317275,
          0.8071431521667767,
          0.5374381266559192,
          -0.1630655012215172,
          0.6055982127922097,
          -0.49539538899752844,
          -0.6141004148449043,
          0.1704867949596276,
          -0.5238968493739264,
          0.2614509295484908,
          0.9906717557777378,
          -0.8013731782152409,
          -0.15325391424589796,
          -0.9610617637035841,
          0.2952006547859565,
          -0.5722874438825434,
          0.6205158255740182,
          0.5769100372104594,
          0.578868989511893,
          -0.1434016867725818
        ]
      ]
    },
    {
      "name": "layer_5",
      "neurons": 21,
      "bias": [
        0.0,
        0.0,
        0.0,
        0.0,
        0.0,
        0.0,
        0.0,
        0.0,
        0.0,
        0.0,
        0.0,
        0.0,
        0.0,
        0.0,
        0.0,
        0.0,
        0.0,
        0.0,
        0.0,
        0.0,
        0.0
      ],
      "weights": [
        [
          -0.2714528190889318,
          0.06087179970356549,
          0.6736517882191686,
          -0.12240956328742136,
          0.039476237146388815,
          -0.05974131875685629,
          -0.7128118948619355,
          0.4283643014153917,
          0.844722083478588,
          0.32017367443399447,
          0.12515429710496884,
          0.7878003092989241,
          -0.6033800025113412,
          0.48533107240446816,
          0.9413260022246517,
          -0.8513644815004338,
          0.14080300518596922,
          0.9494324196482722,
          0.5252176742964165,
          0.5340122386674337,
          -0.644457073255289,
          -0.20562397581379965,
          -0.17468814153466639,
          0.6349991916041937,
          0.43533099468277636,
          -0.24561127888958656
        ],
        [
          0.6983565876769497,
          0.6733947573504615,
          -0.5379620954390614,
          -0.7851688261381102,
          -0.40078260832557455,
          -0.1468519134974977,
          0.4919722441950447,
          0.7384471486375415,
          0.5127465885966924,
          0.2546608060731026,
          0.8211420407211489,
          -0.7565823726070937,
          -0.35353352488998535,
          0.16340797915121397,
          -0.20102251660407466,
          -0.6477989271445297,
          -0.6633895062753332,
          -0.751488729232584,
          -0.4176572442512254,
          -0.8330029650739115,
          0.2012400629018518,
          0.7970649400262408,
          0.8204307089448146,
          0.17671746383082643,
          -0.1485443575366201,
          0.36184258225162247
        ],
        [
          -0.9848908489801238,
          -0.5741997935940379,
          -0.6712329890040758,
          0.441755185765206,
          -0.6072990153815185,
          0.6868548808353736,
          -0.48454403301122473,
          0.23636839145839295,
          -0.9978690854820824,
          -0.20978466182777677,
          0.5094338606340942,
          -0.887951460481095,
          0.15964620570868893,
          0.13170274646463698,
          -0.844355803349587,
          -0.4139284277301314,
          0.7954834546714862,
          0.7967049748353574,
          0.09309586667234071,
          -0.9666670910319219,
          0.6692351868217112,
          0.18284397778936046,
          -0.5839165930405494,
          -0.831469475900769,
          0.8734000573842515,
          0.5256166261971045
        ],
        [
          -0.317614896356315,
          0.028518298784428575,
          0.8581392872304812,
          0.1794920389842225,
          0.2665794771337955,
          0.7008853572540032,
          -0.7357811260342846,
          0.9558652856597725,
          0.38881497355230765,
          0.9673652323880289,
          0.843629635822708,
          -0.802055214315541,
          -0.3156640698895268,
          -0.10776541618561608,
          -0.4147681604322613,
          -0.821293228267157,
          0.6759254624285844,
          0.9418361199843437,
          -0.9585497623458565,
          0.2717315221618666,
          0.9172422572539034,
          0.21217067999140138,
          0.6714853222579849,
          -0.8843390415619834,
          -0.4160649550043847,
          0.9064910909245842
        ],
        [
          -0.26180585947082613,
          0.9247740434653962,
          0.5042236221941419,
          0.5767320462897676,
          0.41467277928261526,
          -0.16516292602732885,
          -0.4268088536626804,
          0.7033814196295916,
          -0.9648059260675244,
          -0.13506794446146508,
          0.36566308517884316,
          0.4019342472212182,
          0.25890833229882726,
          -0.39515952954186173,
          -0.6069461316267559,
          0.5406753449968893,
          0.9412155672975702,
          -0.7220109300965052,
          0.5206108107050664,
          -0.9114464547294419,
          0.07950408701262224,
          -0.8776368833559871,
          -0.8281399432748011,
          -0.2301070414523425,
          0.6908310424542632,
          0.9040116207990594
        ],
        [
          0.36130707491701575,
          -0.3475383466022903,
          0.40763521079525367,
          -0.4688238258021682,
          0.10667630387584404,
          0.030228623836610513,
          -0.8886417718539028,
          0.07567510014472201,
          -0.8291915593036572,
          0.1195859967638826,
          -0.9815390872474519,
          -0.025755623644186487,
          0.750271792947937,
          -0.08782280119712293,
          0.8914805686038592,
          -0.7871147123159761,
          -0.48267738418219985,
          0.3887678081260739,
          0.22323208495826918,
          -0.9734465579456479,
          0.6209274754928436,
          0.028983763988296163,
          -0.3441482760669996,
          0.989478176469504,
          0.3269242261623422,
          0.9039601230236285
        ],
        [
          0.6922346991398782,
          -0.30988566402516216,
          -0.7898411277667907,
          0.9219289224967737,
          -0.6195692204274452,
          0.8372404339717541,
          0.7163144282299261,
          0.2338124576543088,
          -0.5152600375507663,
          -0.9331209533640203,
          0.01400034591387156,
          -0.2819858933840247,
          0.13446334285262806,
          -0.5297499150941185,
          -0.9326010150185955,
          0.2353372025768068,
          -0.7612028419765944,
          -0.9615774912653672,
          -0.6670395770042905,
          0.7098915844156453,
          -0.9441615496553515,
          -0.4742168606219985,
          0.3260934347498008,
          -0.626377331629038,
          0.6618778063600605,
          -0.2862727887776262
        ],
        [
          0.1190200417957632,
          0.17271131764027636,
          -0.771212553670642,
          -0.47101233889001826,
          -0.6135986624025778,
          -0.009591295371327746,
          -0.8469137193150633,
          -0.6841789981940507,
          0.16013112795176232,
          -0.5260574799903506,
          -0.9275497108242385,
          -0.026584058364900853,
          0.943531118910256,
          0.7791244652634097,
          -0.954057467804794,
          0.5721729724311908,
          0.3113487316145105,
          0.31675384263484907,
          -0.162081153861253,
          0.05119563579995856,
          -0.07956769739219549,
          -0.4486000753514856,
          0.715246777723699,
          -0.95500833563213,
          0.46449593769866016,
          0.7506153708989212
        ],
        [
          -0.7916075811196737,
          -0.8920021167184846,
          0.504973595445757,
          -0.14371185039537182,
          0.3863636334664251,
          0.17846326174445548,
          -0.7739110868127583,
          0.9855597569457204,
          -0.6757065538567497,
          0.08852289077060904,
          -0.5122889418212584,
          0.5661209102558407,
          0.30946939154437647,
          0.35554390487857535,
          0.26621075857722976,
          0.4428692184899905,
          0.13938764984413665,
          0.06507606904098928,
          -0.47175654202872397,
          -0.7366267260325403,
          -0.5865062042308704,
          -0.3387678358397035,
          0.6387329680075606,
          -0.030099983946582087,
          -0.03412904166602382,
          -0.7144456344987502
        ],
        [
          -0.4661202103664128,
          0.9012053122378443,
          0.409222518068163,
          0.9525237761600707,
          -0.9017599165632815,
          -0.3589208029581805,
          0.7581230541266168,
          -0.913551406315054,
          -0.38652604020687287,
          -0.782463602996232,
          -0.29291320339570914,
          -0.13455747552877884,
          0.7052945084905211,
          -0.4015785478758829,
          0.8918231432230266,
          0.2887204517006807,
          -0.3723675965339184,
          -0.7555174299167475,
          -0.9835313026961943,
          -0.5057705522724825,
          0.3576463431615997,
          0.9016399704673124,
          0.4341849569540974,
          0.6120709094240613,
          -0.20933429729612385,
          -0.6704227454795764
        ],
        [
          0.23404338667461677,
          -0.7871405971808343,
          0.6009750684763964,
          0.4916011875357553,
          0.910527051025225,
          0.6069155104174966,
          -0.4415531115904907,
          -0.5276881207802697,
          -0.5390792990890556,
          -0.6846925940242894,
          0.14731575232739247,
          -0.6809870670097309,
          -0.9774420614719457,
          -0.227193532312,
          -0.46312892928302185,
          0.26015104140526724,
          0.27014636616827215,
          -0.20213182695073328,
          -0.13379461774000356,
          0.2043572832395153,
          -0.08596850260696409,
          0.6507661875162316,
          -0.16251889193262303,
          -0.9832706994281222,
          0.5071047719779107,
          -0.7645233507352072
        ],
        [
          -0.018040472815933573,
          0.6190877981744243,
          -0.6948299296707308,
          0.7877549042245107,
          -0.35074477595813436,
          0.18456532305363504,
          -0.7081205299666127,
          -0.90026741247284,
          -0.15330358332592176,
          0.8711164669151583,
          -0.38282058961731,
          -0.10311395513815635,
          0.16632183449158178,
          -0.7877980294951346,
          0.19072321219647637,
          -0.31704689872033986,
          -0.40021246394518717,
          -0.275343276897384,
          0.2300243654622285,
          0.5680800037093778,
          0.33573807195879923,
          0.6493502151437507,
          0.4097896537599941,
          0.4901991371486667,
          0.3950504625806073,
          0.3517352022234943
        ],
        [
          -0.6694924875857684,
          0.7835090731553593,
          0.3046852641602933,
          0.9913896616496358,
          0.33274693256905885,
          -0.6375556690732098,
          0.32104225870754655,
          0.14116609437203032,
          -0.3889216427933262,
          0.21052545423759494,
          -0.8247233213784819,
          -0.5394531531731854,
          0.6083901019997573,
          0.04566002099478106,
          -0.038093384211280945,
          -0.581699028965216,
          -0.20517443180196504,
          0.009301176858124371,
          0.8480666315031049,
          -0.7731849345293917,
          -0.44870955927023926,
          0.7394027185398675,
          -0.3273487307382916,
          0.4427305393229972,
          -0.3871379651645117,
          0.177000961158718
        ],
        [
          0.5536219531865751,
          0.9430395386736088,
          0.5141216023296042,
          -0.2418377768858675,
          -0.3561623362360835,
          -0.4233281010301746,
          -0.7599816249769848,
          -0.05324007435085898,
          -0.974259979760935,
          0.7246323552816742,
          -0.14766184169927854,
          -0.7653519948665952,
          0.4508051558064057,
          0.7248050365608032,
          0.042934073360105574,
          0.7928421647169106,
          -0.7819114042402209,
          0.9945713740994722,
          0.10854609258292536,
          0.4594107834215928,
          -0.9470814762512727,
          0.7556565695886757,
          0.27156585792058485,
          -0.25500961928637556,
          0.5263334286247823,
          -0.8016207423607027
        ],
        [
          -0.823501751842346,
          0.7588087761581279,
